// Auto-generated by export_ipinn_to_c.py
// Do NOT edit by hand.

#pragma once

#include <stdint.h>

/* Model architecture: mlp=0, tcn=1, lstm=2 */
static const int IPINN_ARCH_ID = 1;
// IPINN_ARCH_ID corresponds to 'tcn'

/* Input normalization: x_norm = (x - mean) / std */
static const int IPINN_INPUT_MEAN_SIZE = 3;
static const float IPINN_INPUT_MEAN[3] = {
    2.74026227e+00f, 4.18021431e+01f, 3.80000000e+01f
};

static const int IPINN_INPUT_STD_SIZE = 3;
static const float IPINN_INPUT_STD[3] = {
    2.78610349e+00f, 1.34006109e+01f, 1.28840990e+01f
};

/* Physical parameters (learned) */
static const float IPINN_RCOND = 2.36025167e+00f; // [K/W]
static const float IPINN_CTH   = 7.32495832e+00f; // [J/K]

/* R_conv used during training (per scenario) */
static const int IPINN_RCONV_TRAIN_LIST_SIZE = 5;
static const float IPINN_RCONV_TRAIN_LIST[5] = {
    1.00000000e+01f, 1.00000000e+01f, 1.66666660e+01f, 3.33333321e+01f,
    1.66666660e+01f
};

/* R_conv used for held-out test scenario in training script */
static const float IPINN_RCONV_TEST_USED = 1.00000000e+01f; // [K/W]

/* Network parameters (weights and biases) */

static const int tcn_tcn_0_conv_weight_DIMS_SIZE = 3;
static const int tcn_tcn_0_conv_weight_DIMS[3] = { 16, 3, 3 };

static const int tcn_tcn_0_conv_weight_DATA_SIZE = 144;
static const float tcn_tcn_0_conv_weight_DATA[144] = {
    -1.97944626e-01f, 1.39285997e-01f, 2.57210910e-01f, 2.84323543e-01f,
    -2.94127017e-01f, 1.07455954e-01f, -1.57492116e-01f, 1.62433073e-01f,
    -1.48575485e-01f, -8.35905224e-02f, -1.38347179e-01f, 1.98803037e-01f,
    -7.64969140e-02f, 1.30530983e-01f, 2.14714408e-01f, 1.76362202e-01f,
    -1.44441441e-01f, -2.84975916e-01f, -1.89349189e-01f, -8.49612132e-02f,
    -2.11572468e-01f, -3.31138462e-01f, -9.02514532e-02f, -3.21021229e-02f,
    1.26434162e-01f, 7.65944198e-02f, 2.41854638e-01f, -9.48534831e-02f,
    -2.13407218e-01f, 8.54790304e-03f, 7.19753206e-02f, -7.30642825e-02f,
    -3.49312052e-02f, -6.20709918e-02f, -1.42053515e-01f, 1.22928852e-02f,
    -2.80578762e-01f, -1.45578124e-02f, -1.23795085e-01f, -2.57105768e-01f,
    -3.19210112e-01f, -6.11585826e-02f, -3.46109271e-01f, 1.44991726e-01f,
    2.00565606e-01f, -2.13420093e-01f, 3.91365319e-01f, 3.65410775e-01f,
    -2.49274030e-01f, -1.65905133e-01f, 1.17300145e-01f, 2.07336619e-01f,
    1.33195087e-01f, 9.02067646e-02f, 1.85217813e-01f, 2.98234552e-01f,
    2.38617510e-01f, 3.28072417e-03f, -8.88788104e-02f, 3.18075389e-01f,
    1.53829038e-01f, 1.52730465e-01f, -3.54215324e-01f, -1.64948702e-02f,
    1.44913944e-03f, 2.35783812e-02f, 2.46104404e-01f, -6.28737733e-02f,
    3.09281200e-01f, 2.84466773e-01f, -2.26959243e-01f, 2.97978491e-01f,
    1.26382276e-01f, 5.10464907e-02f, -9.60398540e-02f, 6.29267991e-02f,
    -1.49046436e-01f, -8.58958513e-02f, -8.47002342e-02f, 1.46234557e-01f,
    6.89347088e-03f, -2.92612165e-01f, -3.00294042e-01f, -4.25152928e-02f,
    -1.71818376e-01f, -1.68908015e-01f, 2.75717020e-01f, 3.68761271e-01f,
    -2.23899499e-01f, 1.03608720e-01f, 3.71597797e-01f, -4.82515581e-02f,
    -9.43293609e-03f, -1.28383324e-01f, 1.60695985e-01f, -1.84228152e-01f,
    -3.21112275e-01f, -9.96256247e-02f, -6.18811958e-02f, -1.90348133e-01f,
    7.69141018e-02f, 7.32001439e-02f, 2.78802305e-01f, 1.82083726e-01f,
    1.37250185e-01f, 3.25103760e-01f, -2.55958289e-01f, 6.55512735e-02f,
    1.52717158e-01f, 2.25477968e-03f, 6.30708784e-02f, 2.87581205e-01f,
    -8.17629620e-02f, -1.73112646e-01f, 2.01545686e-01f, 2.29618058e-01f,
    -1.76802680e-01f, -1.31232619e-01f, 2.55057551e-02f, -3.58693278e-03f,
    1.38335615e-01f, -3.44325095e-01f, 1.74840003e-01f, -2.85065889e-01f,
    -1.08783923e-01f, -2.98386335e-01f, -1.53659597e-01f, -9.24502388e-02f,
    1.96827456e-01f, 1.76361665e-01f, 1.56858429e-01f, 1.85371071e-01f,
    3.05444092e-01f, 1.31205127e-01f, 1.95631221e-01f, -1.77369997e-01f,
    -1.03970088e-01f, -1.84728980e-01f, 3.18696469e-01f, 3.24966758e-01f,
    2.77275711e-01f, -3.00680697e-01f, 3.35879251e-02f, 1.14308447e-01f
};


static const int tcn_tcn_0_conv_bias_DIMS_SIZE = 1;
static const int tcn_tcn_0_conv_bias_DIMS[1] = { 16 };

static const int tcn_tcn_0_conv_bias_DATA_SIZE = 16;
static const float tcn_tcn_0_conv_bias_DATA[16] = {
    2.47375891e-02f, -1.18639350e-01f, -2.46151179e-01f, -3.55388761e-01f,
    3.29665720e-01f, 2.76184604e-02f, 5.39527088e-02f, -3.10095012e-01f,
    4.17051017e-02f, 2.02254117e-01f, 3.53578061e-01f, 2.56598234e-01f,
    -1.04995482e-01f, -1.31252974e-01f, -3.39074582e-01f, -1.02963634e-01f
};


static const int tcn_tcn_0_resample_weight_DIMS_SIZE = 3;
static const int tcn_tcn_0_resample_weight_DIMS[3] = { 16, 3, 1 };

static const int tcn_tcn_0_resample_weight_DATA_SIZE = 48;
static const float tcn_tcn_0_resample_weight_DATA[48] = {
    -5.02660155e-01f, -3.27096045e-01f, -3.03267926e-01f, 6.15011416e-02f,
    1.90873876e-01f, -2.43777022e-01f, -1.70318246e-01f, 1.09480165e-01f,
    4.19239670e-01f, 5.03834367e-01f, 5.03211975e-01f, -4.19917017e-01f,
    1.43206939e-01f, 1.98172197e-01f, 1.40811324e-01f, -1.17142409e-01f,
    -2.73660243e-01f, 2.47516379e-01f, -1.79595977e-01f, 4.88818645e-01f,
    -4.72281933e-01f, -2.96678077e-02f, 1.18645959e-01f, -5.25954589e-02f,
    -1.78441852e-01f, -1.77922562e-01f, -4.41757031e-02f, 2.94594988e-02f,
    -4.97699857e-01f, -4.99888301e-01f, -7.30156451e-02f, -1.84114158e-01f,
    -2.74237961e-01f, -1.71636641e-02f, -2.92554855e-01f, 2.91220993e-01f,
    -6.16908431e-01f, 1.45103261e-01f, -4.42170113e-01f, -4.07455921e-01f,
    -2.60416478e-01f, 4.83213633e-01f, -1.05207495e-01f, -4.49490875e-01f,
    5.00729918e-01f, -4.28936332e-01f, 2.70450562e-01f, -4.36879486e-01f
};


static const int tcn_tcn_0_resample_bias_DIMS_SIZE = 1;
static const int tcn_tcn_0_resample_bias_DIMS[1] = { 16 };

static const int tcn_tcn_0_resample_bias_DATA_SIZE = 16;
static const float tcn_tcn_0_resample_bias_DATA[16] = {
    1.41218649e-02f, -6.24073088e-01f, -1.77527487e-01f, 3.61048520e-01f,
    9.87334475e-02f, 7.46521577e-02f, -1.67794079e-01f, -4.83211458e-01f,
    -2.12415352e-01f, -5.20484388e-01f, -3.12888712e-01f, 1.58028945e-01f,
    -5.29405832e-01f, 4.58153784e-01f, -1.51840180e-01f, 3.09664518e-01f
};


static const int tcn_tcn_1_conv_weight_DIMS_SIZE = 3;
static const int tcn_tcn_1_conv_weight_DIMS[3] = { 16, 16, 3 };

static const int tcn_tcn_1_conv_weight_DATA_SIZE = 768;
static const float tcn_tcn_1_conv_weight_DATA[768] = {
    1.22088209e-01f, -6.38288334e-02f, 4.12835702e-02f, 1.80459488e-02f,
    1.42993536e-02f, -5.13875224e-02f, 1.18389986e-01f, 3.01722484e-03f,
    8.87042582e-02f, -6.82113394e-02f, -3.69124934e-02f, -5.43441363e-02f,
    -1.20126858e-01f, 1.76257454e-03f, -9.31965932e-02f, -7.39102140e-02f,
    1.43536590e-02f, -1.56957824e-02f, 2.36814842e-02f, 8.48624632e-02f,
    -1.27070537e-02f, 1.25789657e-01f, 1.19790994e-01f, -1.22494750e-01f,
    -1.06402889e-01f, 7.80853629e-02f, 1.30187735e-01f, -5.93158454e-02f,
    -9.74006504e-02f, -9.98209491e-02f, 2.02402798e-03f, 1.43360794e-01f,
    -7.81718642e-02f, -7.13220239e-02f, 4.63012680e-02f, 3.32260467e-02f,
    -4.18049432e-02f, 1.82908904e-02f, -8.00373629e-02f, 5.51389940e-02f,
    9.63087939e-03f, 7.72830620e-02f, 4.66267876e-02f, 1.66909043e-02f,
    -9.25391018e-02f, 5.58734797e-02f, 1.03920795e-01f, 9.32002515e-02f,
    -6.99887169e-04f, -5.27024791e-02f, -1.08780429e-01f, 1.39954090e-02f,
    1.54252797e-01f, 2.77014263e-02f, 7.83367902e-02f, -2.12248433e-02f,
    3.18266898e-02f, -3.71812321e-02f, -8.51142249e-05f, -1.62636876e-01f,
    -3.07504088e-02f, -1.50922194e-01f, 3.99104357e-02f, 4.24778946e-02f,
    -1.00171857e-01f, -7.16007799e-02f, 4.62398902e-02f, -8.17360282e-02f,
    1.00862227e-01f, 9.15166810e-02f, -2.45012492e-02f, -3.46120819e-02f,
    2.42170393e-02f, 3.61034460e-02f, 2.23312825e-02f, -1.08667582e-01f,
    -5.91779836e-02f, -1.92256365e-02f, 8.03085119e-02f, 1.24328129e-01f,
    -4.07993346e-02f, -6.55594990e-02f, -9.51254368e-02f, 7.93764219e-02f,
    7.24896565e-02f, -1.07016876e-01f, -2.67143361e-02f, 7.11502284e-02f,
    1.61110272e-03f, -1.01817317e-01f, 3.99794802e-02f, -1.09150380e-01f,
    -7.48021677e-02f, -2.74346471e-02f, 1.58784091e-02f, -7.73281902e-02f,
    3.93938385e-02f, 1.37779802e-01f, -9.58090555e-03f, -8.41635242e-02f,
    -1.53152952e-02f, -1.60744682e-01f, -3.44367884e-02f, 7.75515363e-02f,
    -7.59108365e-02f, -1.60939217e-01f, 9.79855433e-02f, -2.58282032e-02f,
    1.26688078e-01f, -6.21460900e-02f, 1.28411844e-01f, 8.77685919e-02f,
    2.08070830e-01f, 1.55793011e-01f, -1.28981069e-01f, 1.10054603e-02f,
    -9.76461843e-02f, 1.05835855e-01f, 1.03689738e-01f, -1.40849873e-01f,
    -7.32070580e-02f, 1.06839240e-01f, -2.17312183e-02f, 6.16447181e-02f,
    -6.98400140e-02f, 3.99965569e-02f, 1.26918018e-01f, -5.88358343e-02f,
    1.14577793e-01f, 7.00145736e-02f, 1.73904985e-01f, 1.08304724e-01f,
    -1.59850687e-01f, 3.45289931e-02f, -1.60266198e-02f, -6.43050820e-02f,
    -8.08770955e-02f, 2.72761360e-02f, 1.47263274e-01f, -7.18827620e-02f,
    8.67953245e-03f, -1.30760327e-01f, 1.21602882e-02f, -1.17497124e-01f,
    1.58396158e-02f, 1.20902888e-01f, 9.67925861e-02f, 6.95786029e-02f,
    -6.33016899e-02f, -7.11587593e-02f, -6.44354075e-02f, 1.16832601e-02f,
    -1.45247787e-01f, 1.43739119e-01f, -4.35316972e-02f, 9.80713740e-02f,
    -1.60686582e-01f, -1.64022595e-01f, -1.91582795e-02f, 2.37069651e-02f,
    -1.85845539e-01f, 3.44738625e-02f, 4.32829894e-02f, -1.43075557e-02f,
    1.03194974e-01f, -9.97370705e-02f, -8.81108716e-02f, 6.28750548e-02f,
    -6.79422319e-02f, -3.85885313e-02f, 4.77462038e-02f, -7.70762265e-02f,
    -2.61871070e-02f, -1.10793918e-01f, 5.21315113e-02f, 7.52903447e-02f,
    2.60681030e-03f, -9.41320285e-02f, -3.48464735e-02f, 3.45813036e-02f,
    -4.02925871e-02f, 9.23948660e-02f, 1.98503230e-02f, -1.85091719e-01f,
    8.34327117e-02f, -1.62390266e-02f, 8.34610593e-03f, -1.42737508e-01f,
    -2.07389027e-01f, -7.31689809e-03f, 1.68219298e-01f, 1.41459569e-01f,
    9.78396907e-02f, 9.26243234e-03f, -4.80731763e-03f, -1.19567469e-01f,
    -1.29886225e-01f, -6.82274848e-02f, -1.67169526e-01f, 5.90910539e-02f,
    -6.00552373e-02f, 1.18338503e-01f, 4.88350540e-02f, 2.48600059e-04f,
    4.43773642e-02f, -3.72973806e-03f, -1.50999967e-02f, -1.76350981e-01f,
    -7.55846500e-02f, 2.84475535e-02f, 1.94155902e-01f, 2.87952535e-02f,
    1.78459540e-01f, 2.76123360e-02f, 4.04972099e-02f, 2.90549602e-02f,
    -6.14986829e-02f, -9.11452398e-02f, -1.74731389e-01f, -2.82838829e-02f,
    4.83896621e-02f, -1.61371127e-01f, 2.52706022e-03f, -4.81257066e-02f,
    6.67671785e-02f, -3.72520126e-02f, 1.18632957e-01f, 6.14390820e-02f,
    9.11904052e-02f, 3.84786166e-02f, -1.13462061e-01f, 3.54465656e-02f,
    1.41017586e-02f, -8.82749483e-02f, -3.31757776e-02f, 1.18813664e-02f,
    5.27856983e-02f, -4.86785220e-03f, 1.10709630e-02f, 1.01458482e-01f,
    -4.77547124e-02f, 3.89278084e-02f, 6.34051636e-02f, 1.72969438e-02f,
    -1.86071098e-01f, -4.39267643e-02f, -1.66509703e-01f, -4.72688861e-03f,
    -7.51473308e-02f, 4.92310300e-02f, 1.62911072e-01f, 9.16228294e-02f,
    -8.55443031e-02f, 1.57937974e-01f, 1.32803917e-01f, -1.40680494e-02f,
    6.23049065e-02f, -5.02499342e-02f, 1.86996892e-01f, 6.36799447e-03f,
    -6.08405620e-02f, -1.39304817e-01f, -1.45857215e-01f, -1.50840506e-01f,
    -1.75410181e-01f, 9.39399451e-02f, -1.84242949e-02f, -7.46193454e-02f,
    -1.39376327e-01f, -6.32572547e-03f, 2.14686971e-02f, -6.94279745e-03f,
    1.41255125e-01f, 2.67400648e-02f, 1.01711765e-01f, -1.46697778e-02f,
    -1.31209716e-01f, 5.74642234e-02f, -1.03866786e-01f, 4.77897935e-02f,
    -1.41289569e-02f, -1.28745407e-01f, -7.14718476e-02f, -1.25165537e-01f,
    -3.49647403e-02f, -7.53533542e-02f, -4.34932970e-02f, -4.88460101e-02f,
    1.06840201e-01f, 5.94498739e-02f, 1.04100540e-01f, 1.37845919e-01f,
    -4.22996022e-02f, -5.18613644e-02f, -7.65932200e-04f, 4.74421270e-02f,
    4.39229943e-02f, -1.90318432e-02f, 8.81201588e-03f, 6.66976571e-02f,
    -9.88052189e-02f, -1.43101579e-02f, 8.04321989e-02f, -1.11019254e-01f,
    1.01366028e-01f, 1.64362099e-02f, -1.05071396e-01f, -8.88438746e-02f,
    8.39575846e-03f, -6.26163045e-03f, 2.26543378e-02f, -1.02232166e-01f,
    -3.44719477e-02f, -1.59674242e-01f, -2.87876576e-02f, 6.15851134e-02f,
    -1.30219966e-01f, 8.35233703e-02f, -1.02790371e-01f, -4.03079540e-02f,
    -6.45799236e-03f, 8.35218504e-02f, -1.45479962e-01f, -5.97842224e-02f,
    1.06955722e-01f, -1.11635461e-01f, 2.78095230e-02f, -4.90358053e-03f,
    -1.23410737e-02f, -1.38020860e-02f, -1.19575605e-01f, -4.23369445e-02f,
    1.55560017e-01f, -1.91578180e-01f, 9.31966752e-02f, -1.80669054e-01f,
    3.09679769e-02f, 5.86940795e-02f, -6.75904518e-03f, 8.37037116e-02f,
    -4.40639928e-02f, -8.58526453e-02f, 7.57065192e-02f, -6.66313469e-02f,
    -3.01332325e-02f, 8.18415657e-02f, -9.88116264e-02f, 1.25492916e-01f,
    -8.31810683e-02f, 1.58198535e-01f, -5.26444428e-03f, -2.93674711e-02f,
    1.38592258e-01f, 3.22971530e-02f, -1.75729111e-01f, -1.43106714e-01f,
    -1.21957213e-01f, -7.36115500e-02f, 7.92961493e-02f, -5.00019230e-02f,
    -1.48503548e-02f, 4.24360335e-02f, 7.28113949e-02f, 2.05771610e-01f,
    5.27267642e-02f, 1.12354279e-01f, 8.50832090e-02f, 1.66525766e-01f,
    -7.03882873e-02f, 5.32955527e-02f, -6.87593669e-02f, 4.94717015e-03f,
    -3.07988841e-02f, 6.12559468e-02f, 8.00091028e-02f, 9.44682211e-02f,
    1.06307581e-01f, 5.28963692e-02f, 4.31665964e-02f, -3.22561376e-02f,
    8.09481069e-02f, 4.63359877e-02f, 6.46584257e-02f, 1.54474853e-02f,
    -1.08156934e-01f, -4.70202193e-02f, -8.57936889e-02f, 2.51576509e-02f,
    1.10082142e-01f, 1.07306100e-01f, 1.05114035e-01f, -1.57695636e-02f,
    -4.81254384e-02f, -1.66541159e-01f, 9.05787349e-02f, 4.19476293e-02f,
    8.64553452e-02f, 3.68826576e-02f, 9.37602669e-02f, -1.01916268e-01f,
    4.92943563e-02f, -1.70398772e-01f, -1.61706164e-01f, -1.73187152e-01f,
    1.19121084e-02f, 2.84519345e-02f, -1.39057608e-02f, 4.38230038e-02f,
    1.66333821e-02f, -2.22732201e-02f, 1.20813221e-01f, -3.90493348e-02f,
    -3.18197049e-02f, -4.31997180e-02f, -7.84640163e-02f, 1.77353770e-02f,
    9.96757001e-02f, 5.92758656e-02f, -1.14445565e-02f, 8.02268386e-02f,
    1.77193776e-01f, 5.59806339e-02f, 1.52649194e-01f, -5.78825213e-02f,
    -7.42488028e-03f, -1.33112177e-01f, -1.29590020e-01f, 6.48226067e-02f,
    -7.59417862e-02f, -1.31617531e-01f, 2.96185911e-02f, -6.04475513e-02f,
    1.49986833e-01f, -8.75899717e-02f, -8.61904174e-02f, 3.85871045e-02f,
    -9.78103355e-02f, -8.57272074e-02f, 5.69962151e-02f, 1.08049139e-01f,
    1.66930221e-02f, 1.62903145e-02f, -1.39638945e-01f, -3.89015377e-02f,
    -1.23283282e-01f, -1.58300310e-01f, -1.18134245e-01f, -3.76526900e-02f,
    2.72369869e-02f, -1.36163691e-02f, -7.20470818e-03f, 3.06845158e-02f,
    -4.76386957e-03f, -2.50901300e-02f, 9.60350856e-02f, -1.31495818e-01f,
    -5.43935820e-02f, 1.45781189e-01f, -1.08296722e-01f, 7.61074722e-02f,
    -1.72821693e-02f, 2.23291740e-02f, 1.42061114e-01f, -9.90226567e-02f,
    -1.05595820e-01f, -8.28021467e-02f, -1.78961441e-01f, -8.99336487e-02f,
    -1.07982196e-01f, 9.43603590e-02f, -7.43795261e-02f, -1.40901968e-01f,
    6.58102557e-02f, 8.28145742e-02f, 1.13700442e-01f, -1.11651741e-01f,
    -4.64266725e-02f, 4.73177955e-02f, -2.37676352e-02f, -8.80470276e-02f,
    1.02961369e-01f, 1.89471364e-01f, 5.99569567e-02f, -7.56706595e-02f,
    2.58640628e-02f, -5.65893017e-02f, -1.64849594e-01f, -1.97434291e-01f,
    3.69928889e-02f, 1.10957343e-02f, 1.49855390e-02f, 2.99418494e-02f,
    -4.65302691e-02f, -1.49383783e-01f, 9.06062573e-02f, -1.90812930e-01f,
    -2.61794060e-01f, -4.42115329e-02f, -2.16252133e-02f, 2.12027177e-01f,
    5.01364060e-02f, -1.71854317e-01f, -1.50380701e-01f, -6.83090612e-02f,
    -8.68161246e-02f, -3.60665843e-02f, -9.58993658e-02f, 8.87949988e-02f,
    9.42951888e-02f, 1.04475550e-01f, 1.96538761e-01f, 1.45636082e-01f,
    -4.00494970e-02f, -1.78523213e-01f, 1.49779664e-02f, -2.44910151e-01f,
    5.38350344e-02f, -4.46959585e-02f, 3.18248458e-02f, -4.76309769e-02f,
    -1.18026532e-01f, 9.05361865e-03f, -1.15949586e-01f, -4.28400747e-02f,
    -1.59773722e-01f, 1.07587561e-01f, 1.18900374e-01f, 5.76772168e-02f,
    3.35684232e-02f, -7.01555982e-02f, -1.48948416e-01f, -6.61333129e-02f,
    2.54754126e-02f, -1.29841596e-01f, -8.27835202e-02f, 9.43672508e-02f,
    5.41164391e-02f, -3.31641398e-02f, 2.15854183e-01f, 2.65548602e-02f,
    5.81372865e-02f, -5.62644377e-02f, 8.37641731e-02f, -8.34757015e-02f,
    -4.82156873e-02f, -1.31359458e-01f, -5.42561151e-02f, -3.42869125e-02f,
    1.89818889e-01f, -5.67306653e-02f, -6.21780474e-03f, -4.75421809e-02f,
    3.33345868e-02f, -2.99262851e-02f, 1.92046165e-02f, -1.34260640e-01f,
    -2.77750976e-02f, -1.06799588e-01f, 7.52771795e-02f, -1.31131768e-01f,
    2.34236084e-02f, -9.61317047e-02f, 1.49376243e-02f, 1.02020480e-01f,
    1.16518708e-02f, -1.35296047e-01f, 5.89950643e-02f, -1.02548162e-02f,
    4.93432768e-02f, -1.24685541e-01f, -7.80507773e-02f, 5.48012927e-02f,
    -1.46017209e-01f, 1.02383262e-02f, 7.27613643e-02f, 1.07274115e-01f,
    8.25519338e-02f, -1.90595130e-03f, -6.63290471e-02f, -1.19309522e-01f,
    3.20371538e-02f, -6.42181188e-02f, -1.01070486e-01f, 4.51709293e-02f,
    1.33762330e-01f, -2.78834775e-02f, -3.56368460e-02f, 4.22877781e-02f,
    1.26650054e-02f, 1.00538731e-01f, -2.67840782e-03f, 5.21199182e-02f,
    1.75776646e-01f, -1.00866389e-02f, -6.43559918e-02f, 5.22897057e-02f,
    -1.32332444e-01f, 2.24002860e-02f, -1.13628969e-01f, 9.73362178e-02f,
    -1.41521059e-02f, 1.12571523e-01f, 8.59395266e-02f, -6.04183525e-02f,
    1.31245684e-02f, 6.28399029e-02f, -3.63073163e-02f, -1.49479374e-01f,
    7.61796311e-02f, -4.05404065e-03f, -6.67577013e-02f, 1.03748970e-01f,
    3.64538431e-02f, 4.91234846e-02f, -6.42962903e-02f, 1.45875841e-01f,
    7.61013925e-02f, 8.50936845e-02f, 1.53189555e-01f, 1.21820800e-01f,
    2.34096274e-02f, -7.48060271e-02f, 7.19789639e-02f, -6.46452559e-03f,
    9.13624689e-02f, 7.28096962e-02f, 3.54113169e-02f, -8.37916657e-02f,
    1.05181962e-01f, -5.98957427e-02f, 8.35752636e-02f, -4.47327495e-02f,
    1.50612975e-02f, -1.10205799e-01f, -2.13674793e-04f, -1.30218327e-01f,
    2.43010093e-02f, -7.83824474e-02f, 1.36600986e-01f, 1.94632754e-01f,
    1.84222475e-01f, 2.93617155e-02f, -1.51511803e-01f, -1.66430801e-01f,
    -1.58860996e-01f, 9.73453559e-03f, -6.86293915e-02f, -8.51172581e-02f,
    1.65841728e-01f, 2.79214103e-02f, 1.56754836e-01f, 5.35964109e-02f,
    1.72819585e-01f, 1.61505774e-01f, 2.30472591e-02f, 1.02710702e-01f,
    1.49051577e-01f, 1.39346257e-01f, -2.99876370e-02f, 3.71697620e-02f,
    3.58323790e-02f, -1.34340793e-01f, 4.00036462e-02f, 2.48736497e-02f,
    6.01548217e-02f, 3.80050167e-02f, -6.81476668e-02f, -5.18033728e-02f,
    -4.93567474e-02f, -8.29408243e-02f, -3.60289998e-02f, 3.37498002e-02f,
    9.85109732e-02f, 1.18225254e-02f, 1.18009709e-01f, 1.01224914e-01f,
    2.23354734e-02f, 6.76740706e-03f, -5.12621067e-02f, 2.45461166e-02f,
    4.88511138e-02f, -2.36876830e-02f, -3.05673177e-03f, -1.19289465e-01f,
    -8.34752899e-03f, -1.01757824e-01f, 9.62233692e-02f, -3.25115956e-02f,
    1.01468399e-01f, -1.58323419e-05f, -4.48452905e-02f, -1.24787226e-01f,
    -3.94431986e-02f, -5.32455891e-02f, 6.72919303e-03f, -8.52443427e-02f,
    1.35529205e-01f, 5.57920188e-02f, 2.25851703e-02f, -2.43934114e-02f,
    8.02752823e-02f, 5.14094234e-02f, 7.36261532e-02f, 1.05012752e-01f,
    1.19115613e-01f, 1.18867852e-01f, 6.56183138e-02f, -4.20194864e-02f,
    1.29978180e-01f, 5.46523333e-02f, -8.15548673e-02f, 7.01487204e-03f,
    1.22690186e-01f, 1.04830347e-01f, -1.44322542e-02f, -8.21978375e-02f,
    1.54132068e-01f, 8.03248659e-02f, -1.12268604e-01f, -9.72757638e-02f,
    1.72816798e-01f, 1.81702852e-01f, 4.97967899e-02f, -1.53279454e-01f,
    -8.22385401e-02f, -6.70785680e-02f, 4.86676134e-02f, -4.42909561e-02f,
    -3.44574801e-03f, 3.21973525e-02f, 1.88598454e-01f, -1.56367775e-02f,
    -2.75137089e-03f, -3.47257033e-02f, -1.54386302e-02f, -1.83233157e-01f,
    -1.80461779e-01f, -5.26481122e-02f, 2.04325676e-01f, 1.55507848e-01f,
    7.74034932e-02f, -1.13907017e-01f, 6.76311506e-03f, -1.14453780e-02f,
    6.05624653e-02f, -1.06722869e-01f, 5.28201573e-02f, -1.32056056e-02f,
    1.53735802e-01f, 1.20020449e-01f, 8.22871923e-02f, 9.67775583e-02f,
    3.59263532e-02f, -1.68481559e-01f, 9.10436641e-03f, -1.77068084e-01f,
    -6.89463019e-02f, 3.54623199e-02f, 9.52698872e-04f, 7.51277432e-02f,
    1.28769502e-01f, 6.76264912e-02f, -1.40600622e-01f, -1.62444934e-01f,
    -4.53181081e-02f, -6.76985607e-02f, 1.81880936e-01f, 1.91094354e-01f
};


static const int tcn_tcn_1_conv_bias_DIMS_SIZE = 1;
static const int tcn_tcn_1_conv_bias_DIMS[1] = { 16 };

static const int tcn_tcn_1_conv_bias_DATA_SIZE = 16;
static const float tcn_tcn_1_conv_bias_DATA[16] = {
    -1.30277440e-01f, -1.30576074e-01f, 8.38002935e-02f, -2.08143387e-02f,
    1.36350736e-01f, 1.17451489e-01f, -1.47282645e-01f, -1.23233937e-01f,
    -1.81146991e-02f, -3.30410674e-02f, 6.83235750e-02f, 8.51598009e-02f,
    -1.92112941e-02f, 1.27176449e-01f, 1.08627066e-01f, -2.72315126e-02f
};


static const int tcn_tcn_2_conv_weight_DIMS_SIZE = 3;
static const int tcn_tcn_2_conv_weight_DIMS[3] = { 16, 16, 3 };

static const int tcn_tcn_2_conv_weight_DATA_SIZE = 768;
static const float tcn_tcn_2_conv_weight_DATA[768] = {
    -1.20343134e-01f, 1.04289167e-01f, 2.68797819e-02f, -1.02523364e-01f,
    9.10564512e-02f, 3.62613983e-02f, 1.20541640e-01f, -1.14502013e-01f,
    -5.39882071e-02f, 6.67103305e-02f, -7.68045709e-02f, -6.17747847e-03f,
    1.10685388e-02f, -6.29976019e-02f, -8.40308964e-02f, -5.57574779e-02f,
    4.76590842e-02f, 8.11097473e-02f, -8.05390626e-02f, 1.19240537e-01f,
    -1.58626646e-01f, -2.26422126e-04f, -7.71979466e-02f, -2.49708351e-02f,
    5.05658463e-02f, -6.13238811e-02f, 5.14521226e-02f, -4.30729315e-02f,
    7.34107867e-02f, 1.21682629e-01f, -9.40554589e-02f, 9.22594145e-02f,
    -7.17306510e-02f, 1.06136333e-02f, -5.93493059e-02f, -8.32758844e-02f,
    1.18772440e-01f, 1.01214953e-01f, 3.63023840e-02f, 1.87918041e-02f,
    -1.48582801e-01f, -1.57348394e-01f, -4.98195812e-02f, 7.31425807e-02f,
    4.56560478e-02f, 6.72301874e-02f, -7.87314102e-02f, -5.06067760e-02f,
    6.30835146e-02f, -1.83018118e-01f, -1.36699080e-01f, -9.78459343e-02f,
    -1.86003208e-01f, -1.24349765e-01f, -2.88555194e-02f, -3.47148627e-02f,
    -1.22903250e-01f, -1.06253274e-01f, 1.73610561e-02f, 5.57594672e-02f,
    3.86605710e-02f, -5.49104996e-03f, 9.35850292e-02f, 1.66104704e-01f,
    2.76778974e-02f, -3.07276808e-02f, -1.49180219e-01f, 2.96204165e-02f,
    1.09972641e-01f, 3.41343172e-02f, -5.11387959e-02f, -6.90174103e-02f,
    5.12267277e-02f, -1.25747591e-01f, -1.22597806e-01f, -1.12645820e-01f,
    -9.54625756e-02f, -5.01251072e-02f, 6.73729926e-02f, 1.07424870e-01f,
    -9.61603820e-02f, 6.21745028e-02f, 5.39272204e-02f, -9.12184641e-02f,
    6.71379417e-02f, -1.14415035e-01f, -6.29151333e-03f, 1.07014634e-01f,
    9.58367735e-02f, -8.44790339e-02f, -9.62625965e-02f, 9.68637094e-02f,
    -1.29552223e-02f, -4.29722182e-02f, 6.32226318e-02f, -6.78104684e-02f,
    3.07910480e-02f, 1.39812650e-02f, -2.75648292e-02f, -5.16312271e-02f,
    1.08558722e-01f, -8.50241184e-02f, -9.24041644e-02f, -9.69125330e-02f,
    7.44805532e-03f, -2.81774513e-02f, -7.88505897e-02f, -1.53305739e-01f,
    -1.15554444e-01f, -4.84847464e-03f, -9.64913964e-02f, 6.22253045e-02f,
    -3.86452153e-02f, -8.03828984e-02f, 6.31534904e-02f, 9.39319953e-02f,
    4.22250740e-02f, 2.34463047e-02f, -3.07958666e-03f, 2.32402850e-02f,
    -4.94658761e-02f, -2.70190518e-02f, -7.98127707e-03f, -4.59029675e-02f,
    -1.90566387e-02f, -4.03128788e-02f, -1.34330228e-01f, 3.01170573e-02f,
    8.07382632e-03f, -1.23602934e-01f, 8.28108341e-02f, -9.15387273e-02f,
    -1.03006354e-02f, 1.46379974e-02f, -2.04590540e-02f, -3.61668831e-03f,
    -5.51942922e-02f, -3.67044248e-02f, -1.16781354e-01f, -1.20067529e-01f,
    5.77487759e-02f, 4.54462245e-02f, 5.25132790e-02f, 2.43694130e-02f,
    1.49510279e-01f, 1.60607561e-01f, -5.22285625e-02f, 8.43423679e-02f,
    -1.83095150e-02f, 3.85426395e-02f, 8.48135501e-02f, 6.40832260e-02f,
    6.40135212e-03f, -5.16208559e-02f, 3.80610563e-02f, 2.14026235e-02f,
    1.12564363e-01f, -7.58009357e-03f, 8.30763206e-02f, -6.59375712e-02f,
    -4.19966727e-02f, -1.70584679e-01f, 4.20912914e-02f, -7.14094043e-02f,
    -5.57324775e-02f, -5.53319640e-02f, 2.20752624e-03f, -3.76416966e-02f,
    -3.92975919e-02f, -1.02200761e-01f, 7.76847228e-02f, 1.29368842e-01f,
    -2.29700170e-02f, 2.51738727e-03f, -1.11088753e-01f, -9.96949896e-02f,
    -5.74638397e-02f, -2.70368997e-02f, 7.21500488e-03f, -7.39527419e-02f,
    1.98125973e-01f, 3.80965658e-02f, 1.02113567e-01f, 3.87823372e-03f,
    -2.97647417e-02f, 2.03904491e-02f, -3.19913886e-02f, 1.43928111e-01f,
    -3.36883441e-02f, 4.18207198e-02f, -9.80057195e-02f, -1.95930749e-02f,
    1.38513455e-02f, -5.05040400e-02f, -3.68371308e-02f, 1.24135919e-01f,
    -1.01327278e-01f, 1.21585302e-01f, 4.35055196e-02f, 5.56166880e-02f,
    1.03050001e-01f, 9.04044509e-03f, 1.63617462e-01f, 3.81700434e-02f,
    1.22100443e-01f, 8.72055888e-02f, -3.56854318e-04f, -4.43743393e-02f,
    1.93213299e-02f, 8.51687267e-02f, 2.12205597e-03f, 5.35027757e-02f,
    1.67655021e-01f, -4.34660353e-02f, 1.03810534e-01f, -5.42434491e-02f,
    -1.02415100e-01f, -2.69600116e-02f, 7.64138252e-02f, 3.96582931e-02f,
    -1.70949668e-01f, -1.54835850e-01f, -5.55085950e-02f, -9.24922451e-02f,
    -9.71362218e-02f, 2.33164951e-02f, -8.12707096e-02f, -1.03397235e-01f,
    6.67070225e-02f, 6.17071502e-02f, 1.04184479e-01f, -1.38991877e-01f,
    5.96576408e-02f, 1.41180813e-01f, 7.52658546e-02f, 1.25020400e-01f,
    -1.13390252e-01f, -5.29364012e-02f, 3.81057933e-02f, -1.16306253e-01f,
    1.57093093e-01f, 6.52838275e-02f, -8.79303515e-02f, 4.93217073e-02f,
    -7.85504654e-02f, -1.15788832e-01f, 5.72212376e-02f, 4.01009396e-02f,
    5.46446592e-02f, 5.01733739e-03f, 1.26835570e-01f, 2.97941770e-02f,
    3.80801298e-02f, -5.66150509e-02f, -7.69617110e-02f, -6.17554560e-02f,
    -2.13048179e-02f, 2.82948520e-02f, -4.21898672e-03f, 2.04065919e-01f,
    6.89544305e-02f, 1.65055156e-01f, 1.33425429e-01f, 1.46395028e-01f,
    2.57689115e-02f, 2.28968449e-02f, 1.00663587e-01f, 1.27500696e-02f,
    -1.10932045e-01f, -6.34236857e-02f, -1.40547141e-01f, 3.30727287e-02f,
    8.63941833e-02f, -1.30527183e-01f, 6.15727331e-04f, -1.06259674e-01f,
    -1.27828598e-01f, 2.07332112e-02f, 1.61101103e-01f, 2.74804551e-02f,
    -1.19752549e-01f, 6.06999807e-02f, 1.12825498e-01f, 4.28157002e-02f,
    5.21453023e-02f, 1.31564200e-01f, -8.28327909e-02f, 9.38340425e-02f,
    2.48204768e-02f, 7.41150603e-02f, 3.97458896e-02f, 1.86280906e-02f,
    4.57995422e-02f, -5.94922937e-02f, 6.04283810e-02f, -1.07307531e-01f,
    1.22629747e-01f, -5.37033901e-02f, -1.78007483e-02f, 6.80014119e-02f,
    2.08530165e-02f, -7.26196095e-02f, 4.40276787e-02f, -1.88843068e-02f,
    1.03177573e-03f, -1.05951093e-01f, 9.57012102e-02f, -1.09663218e-01f,
    -1.04628541e-02f, 4.00673300e-02f, -1.08342104e-01f, 4.41552186e-03f,
    3.15354206e-02f, -6.96899146e-02f, 9.86301452e-02f, 9.65351984e-02f,
    6.43591117e-03f, -1.64807260e-01f, 3.11967749e-02f, 9.25188586e-02f,
    -6.71703890e-02f, 2.21712813e-02f, -1.17286310e-01f, 2.48081367e-02f,
    -2.79089492e-02f, -1.60852578e-04f, 6.29914030e-02f, -2.28914823e-02f,
    -2.57652067e-02f, -1.11841388e-01f, 3.90541814e-02f, 1.18855372e-01f,
    -7.37827942e-02f, -5.08441182e-04f, -8.03746879e-02f, 2.73167086e-03f,
    6.47085607e-02f, -3.48729417e-02f, 1.21353604e-01f, -1.34273112e-01f,
    6.40084296e-02f, -1.79588318e-01f, 7.39959106e-02f, 7.33733699e-02f,
    1.71430305e-01f, 1.71008315e-02f, -1.48325056e-01f, 8.77814963e-02f,
    2.37674899e-02f, -1.38835125e-02f, -1.33230472e-02f, 1.47181436e-01f,
    4.43910696e-02f, 1.88111827e-01f, 3.89671624e-02f, -5.57850599e-02f,
    8.99950042e-02f, -1.41977623e-01f, -5.37037803e-03f, 6.60432577e-02f,
    1.16245471e-01f, -8.22451934e-02f, -9.96265113e-02f, -8.45869705e-02f,
    6.84547499e-02f, 8.01697522e-02f, -2.16723029e-02f, 1.99237224e-02f,
    1.51683137e-01f, 1.62017182e-01f, 4.55913134e-02f, 9.56019014e-02f,
    -7.35395849e-02f, -3.11887600e-02f, -1.78825960e-01f, 5.45997964e-03f,
    1.51279122e-01f, 7.93606713e-02f, 3.90744694e-02f, 1.65266320e-01f,
    1.51941672e-01f, -7.88018182e-02f, -1.04338735e-01f, -7.85770193e-02f,
    -1.33257702e-01f, -6.02836348e-02f, -2.67778188e-02f, 1.28218892e-03f,
    4.10090573e-02f, -3.49879302e-02f, -5.46718314e-02f, 6.78106025e-02f,
    8.11840966e-02f, -1.48234859e-01f, -3.45397927e-02f, -1.35317773e-01f,
    -1.01438038e-01f, 8.90472084e-02f, 8.89132097e-02f, 7.65432268e-02f,
    1.57060772e-01f, 1.16351619e-01f, -1.02424487e-01f, 3.39066386e-02f,
    -1.25513509e-01f, 4.71827798e-02f, 8.59513283e-02f, -1.43623799e-01f,
    -6.74211653e-03f, -7.58475736e-02f, 1.27937284e-03f, -4.79872674e-02f,
    -9.51857641e-02f, -1.27059653e-01f, 1.45625189e-01f, 1.70800909e-01f,
    3.90284993e-02f, 1.49076581e-01f, 1.43578976e-01f, 1.04152389e-01f,
    3.05155870e-02f, -1.53802261e-01f, 3.55164893e-02f, 1.25627667e-01f,
    8.82642269e-02f, -3.87924388e-02f, 1.23814978e-01f, 4.81864959e-02f,
    -1.15948550e-01f, -9.06796828e-02f, -7.16008022e-02f, 9.07179900e-03f,
    -4.65083644e-02f, -3.54289412e-02f, -5.34417070e-02f, -7.41366968e-02f,
    1.51949581e-02f, 1.11683697e-01f, -1.30429510e-02f, -2.78348178e-02f,
    4.39363420e-02f, -1.61097758e-02f, -9.14044976e-02f, -1.22008063e-02f,
    8.57338682e-02f, 5.83290569e-02f, 7.57816359e-02f, -3.03170122e-02f,
    1.52963787e-01f, 4.74588852e-03f, -2.03882530e-01f, -1.17062442e-01f,
    -1.38105482e-01f, -8.08194578e-02f, 5.02560660e-02f, -5.22547550e-02f,
    1.55874610e-01f, -1.22853406e-02f, 1.44151732e-01f, -2.64257882e-02f,
    4.61116992e-02f, 5.89135401e-02f, 1.26659676e-01f, 1.33542418e-02f,
    -3.85443531e-02f, -4.68454510e-02f, -8.33005458e-02f, -1.19595036e-01f,
    -5.25349416e-02f, 2.35169493e-02f, 1.05654467e-02f, 1.36182398e-01f,
    7.69537464e-02f, 9.48945507e-02f, 3.35578397e-02f, -6.02341816e-02f,
    -4.58971411e-02f, 9.73875895e-02f, 9.94972959e-02f, -1.02370441e-01f,
    -2.25389581e-02f, -3.98666710e-02f, -8.56278092e-03f, -5.42504489e-02f,
    -1.46068066e-01f, -4.17157263e-02f, -1.20121501e-01f, -2.10117310e-01f,
    -1.92507565e-01f, 1.02553792e-01f, 2.00371578e-01f, 1.59592211e-01f,
    -8.83978382e-02f, -2.07950249e-02f, 1.00730406e-02f, 1.37362704e-01f,
    -9.58439335e-02f, 4.26004827e-03f, 1.99246079e-01f, -2.61552352e-02f,
    1.10722341e-01f, -8.88020024e-02f, -1.79069564e-01f, 6.50520325e-02f,
    5.03054187e-02f, 9.41907763e-02f, -1.59101561e-01f, 9.29426104e-02f,
    -1.45778403e-01f, 1.04568720e-01f, -1.93333812e-02f, 1.32106543e-01f,
    7.40176216e-02f, 4.18842770e-03f, 1.17437892e-01f, 9.18540657e-02f,
    4.64172736e-02f, 9.79652628e-02f, 5.81621155e-02f, 6.79159611e-02f,
    2.62145139e-03f, 6.56062132e-03f, -7.91636184e-02f, 7.66801313e-02f,
    -1.65494353e-01f, 1.50380924e-01f, 2.13435650e-01f, 4.95708361e-02f,
    4.48407009e-02f, 4.91785519e-02f, -4.19291630e-02f, -1.96743775e-02f,
    5.12744226e-02f, 1.87679492e-02f, -1.11453950e-01f, -1.27035171e-01f,
    2.50533391e-02f, 4.63881791e-02f, -3.60363498e-02f, 6.58895820e-02f,
    1.07672676e-01f, 1.29753396e-01f, 1.40194222e-01f, 2.84946244e-02f,
    5.90931065e-02f, -1.02365933e-01f, 7.59277167e-03f, 9.38818231e-02f,
    2.91217174e-02f, 5.19942902e-02f, 1.25511497e-01f, 1.01704508e-01f,
    -1.25598952e-01f, -1.36748150e-01f, 7.83413723e-02f, 5.77854924e-02f,
    7.13315979e-02f, 9.58357751e-02f, 1.92471489e-01f, 4.06833105e-02f,
    5.65466657e-02f, 1.05639383e-01f, 5.04199304e-02f, 1.20989151e-01f,
    -4.66829874e-02f, 9.43453237e-02f, 3.73174846e-02f, 1.00730896e-01f,
    4.41525877e-02f, -9.47688222e-02f, -8.68496001e-02f, -4.25535589e-02f,
    -1.33055057e-02f, 1.93183497e-01f, 1.12017527e-01f, 7.29038864e-02f,
    6.84540644e-02f, -6.18557781e-02f, -8.36831108e-02f, 1.91126261e-02f,
    4.78774309e-03f, 4.51113433e-02f, 1.12284146e-01f, -1.17029756e-01f,
    -1.14521995e-01f, -1.46204904e-01f, -1.22635312e-01f, -7.13631064e-02f,
    8.32819119e-02f, -5.82495518e-02f, -2.56064367e-02f, -4.43575755e-02f,
    3.34608518e-02f, 1.01225846e-01f, 6.76401481e-02f, 9.27627236e-02f,
    -3.92840318e-02f, -9.23746303e-02f, 7.29610994e-02f, 2.45995484e-02f,
    1.18400693e-01f, 1.34061631e-02f, -1.32829919e-01f, 4.99945581e-02f,
    4.51324917e-02f, -1.24850556e-01f, 3.56574617e-02f, -9.06559601e-02f,
    -9.43762213e-02f, -1.51512891e-01f, 5.27120568e-02f, -1.30205736e-01f,
    5.66210262e-02f, -2.23255418e-02f, -1.27949029e-01f, 1.08292803e-01f,
    7.03076124e-02f, -8.68056193e-02f, 4.92525622e-02f, 2.68593375e-02f,
    -7.76232034e-02f, 9.08841342e-02f, -3.44699956e-02f, -1.20455464e-02f,
    1.16768375e-01f, -7.98369721e-02f, 1.78009812e-02f, -3.26025970e-02f,
    5.98024055e-02f, 1.33517450e-02f, 5.12972986e-03f, 6.55411929e-02f,
    8.74465890e-03f, 5.44216782e-02f, -5.85156772e-03f, -1.98688470e-02f,
    8.67726877e-02f, -8.98263231e-02f, -1.03103928e-01f, 1.64143458e-01f,
    -4.47340030e-03f, 1.94602445e-01f, -1.41439006e-01f, -1.18381016e-01f,
    -1.76983133e-01f, -1.92413688e-01f, -2.20570773e-01f, 2.04733089e-02f,
    -5.40384240e-02f, 1.37548998e-01f, 5.15083857e-02f, 1.30057707e-01f,
    -8.33044499e-02f, -2.36538555e-02f, 8.38536024e-02f, -1.55684063e-02f,
    1.68284401e-01f, 5.16823530e-02f, -6.47857711e-02f, 1.26697361e-01f,
    7.06898281e-03f, -1.31344870e-01f, -1.43938571e-01f, -9.63786524e-03f,
    1.17071085e-01f, -3.17422263e-02f, 9.39667299e-02f, 4.40757200e-02f,
    1.26136839e-01f, 9.47728902e-02f, -1.10128790e-01f, -1.02942877e-01f,
    9.17987227e-02f, 8.06832910e-02f, 9.70363393e-02f, 6.93261921e-02f,
    -7.18324780e-02f, -9.72363353e-02f, -2.84092072e-02f, 1.41062632e-01f,
    1.33957267e-01f, -7.60323256e-02f, 3.54152285e-02f, -1.24095254e-01f,
    -2.98230648e-02f, 1.00739740e-01f, -1.74637407e-03f, 6.99485615e-02f,
    2.39560783e-01f, 1.22402877e-01f, -1.89059600e-01f, -4.35174303e-03f,
    -2.42361962e-03f, 6.06430992e-02f, -1.36098519e-01f, -7.16860816e-02f,
    -8.54822844e-02f, 1.76446848e-02f, 5.23619540e-02f, 1.40706837e-01f,
    6.14919234e-03f, -7.86388293e-02f, 1.12315752e-01f, -2.34782379e-02f,
    -6.94391504e-02f, -8.61438811e-02f, -1.93562619e-02f, -9.66164749e-03f,
    -5.07551655e-02f, -1.51253819e-01f, -1.80332974e-01f, 8.18249136e-02f,
    -1.61288027e-02f, 6.81506395e-02f, -7.59735629e-02f, -8.67670700e-02f,
    -3.38863209e-02f, 9.51181501e-02f, -3.85469124e-02f, -7.77034834e-02f,
    -1.01954170e-01f, -9.41922143e-02f, 8.76974687e-02f, -1.29758269e-01f,
    8.43165666e-02f, -9.56666097e-02f, -3.68732400e-02f, 5.91890030e-02f,
    -5.85940145e-02f, 8.48902389e-02f, -5.22224568e-02f, 2.59864256e-02f,
    -2.99060671e-03f, 4.11450900e-02f, -2.11387612e-02f, -3.38427722e-02f,
    6.69208467e-02f, -9.50000137e-02f, 3.25734960e-03f, 1.43402517e-01f,
    8.13770145e-02f, 7.29873776e-02f, -2.91010998e-02f, -1.75057203e-01f,
    6.28168508e-02f, -1.03533834e-01f, -1.39449220e-02f, -1.00958042e-01f,
    -1.60324678e-01f, 1.53023833e-02f, 3.26257534e-02f, -4.79599163e-02f,
    -2.21265014e-02f, 6.94799349e-02f, 1.36514544e-01f, -4.58530858e-02f,
    1.04956053e-01f, -4.66758870e-02f, 1.16416290e-01f, -1.24130603e-02f,
    1.19492918e-01f, 6.61208257e-02f, -4.36529703e-02f, 8.56500566e-02f,
    6.10197783e-02f, 1.19804166e-01f, 1.00738823e-01f, 5.84101155e-02f
};


static const int tcn_tcn_2_conv_bias_DIMS_SIZE = 1;
static const int tcn_tcn_2_conv_bias_DIMS[1] = { 16 };

static const int tcn_tcn_2_conv_bias_DATA_SIZE = 16;
static const float tcn_tcn_2_conv_bias_DATA[16] = {
    3.50217968e-02f, -1.80662796e-02f, -2.97051538e-02f, -3.82148810e-02f,
    1.12737529e-01f, -6.82594255e-02f, -1.45041347e-01f, -7.67323747e-02f,
    9.53366142e-03f, -9.93966311e-02f, 4.66438606e-02f, 8.66752043e-02f,
    -8.38529095e-02f, -7.12509602e-02f, -4.17305008e-02f, 1.49560004e-01f
};


static const int tcn_head_weight_DIMS_SIZE = 3;
static const int tcn_head_weight_DIMS[3] = { 1, 16, 1 };

static const int tcn_head_weight_DATA_SIZE = 16;
static const float tcn_head_weight_DATA[16] = {
    -1.31470352e-01f, -1.42063722e-01f, -2.45891780e-01f, 3.19852009e-02f,
    2.20824927e-01f, 5.95107116e-02f, 1.47042132e-03f, -7.56785050e-02f,
    -1.54975265e-01f, -8.07025731e-02f, 1.37451932e-01f, 1.55336305e-01f,
    -2.00411811e-01f, -6.48664087e-02f, -2.60821760e-01f, 8.08915719e-02f
};


static const int tcn_head_bias_DIMS_SIZE = 1;
static const int tcn_head_bias_DIMS[1] = { 1 };

static const int tcn_head_bias_DATA_SIZE = 1;
static const float tcn_head_bias_DATA[1] = {
    7.39417598e-02f
};


/* Lookup tables for activation functions (float32) */

// LUT for sigmoid in range [lut_xmin, lut_xmax]
static const float LUT_SIGMOID_X_MIN = -8.00000000e+00f;
static const float LUT_SIGMOID_X_MAX = 8.00000000e+00f;

static const int LUT_SIGMOID_X_SIZE = 2048;
static const float LUT_SIGMOID_X[2048] = {
    -8.00000000e+00f, -7.99218369e+00f, -7.98436737e+00f, -7.97655106e+00f,
    -7.96873474e+00f, -7.96091843e+00f, -7.95310211e+00f, -7.94528580e+00f,
    -7.93746948e+00f, -7.92965317e+00f, -7.92183685e+00f, -7.91402054e+00f,
    -7.90620422e+00f, -7.89838791e+00f, -7.89057159e+00f, -7.88275528e+00f,
    -7.87493896e+00f, -7.86712265e+00f, -7.85930634e+00f, -7.85149002e+00f,
    -7.84367371e+00f, -7.83585739e+00f, -7.82804108e+00f, -7.82022476e+00f,
    -7.81240845e+00f, -7.80459213e+00f, -7.79677582e+00f, -7.78895950e+00f,
    -7.78114319e+00f, -7.77332687e+00f, -7.76551056e+00f, -7.75769424e+00f,
    -7.74987793e+00f, -7.74206161e+00f, -7.73424530e+00f, -7.72642899e+00f,
    -7.71861267e+00f, -7.71079636e+00f, -7.70298004e+00f, -7.69516373e+00f,
    -7.68734741e+00f, -7.67953110e+00f, -7.67171478e+00f, -7.66389847e+00f,
    -7.65608215e+00f, -7.64826584e+00f, -7.64044952e+00f, -7.63263321e+00f,
    -7.62481689e+00f, -7.61700058e+00f, -7.60918427e+00f, -7.60136795e+00f,
    -7.59355164e+00f, -7.58573532e+00f, -7.57791901e+00f, -7.57010269e+00f,
    -7.56228638e+00f, -7.55447006e+00f, -7.54665375e+00f, -7.53883743e+00f,
    -7.53102112e+00f, -7.52320480e+00f, -7.51538849e+00f, -7.50757217e+00f,
    -7.49975586e+00f, -7.49193954e+00f, -7.48412323e+00f, -7.47630692e+00f,
    -7.46849060e+00f, -7.46067429e+00f, -7.45285797e+00f, -7.44504166e+00f,
    -7.43722534e+00f, -7.42940903e+00f, -7.42159271e+00f, -7.41377640e+00f,
    -7.40596008e+00f, -7.39814377e+00f, -7.39032745e+00f, -7.38251114e+00f,
    -7.37469482e+00f, -7.36687851e+00f, -7.35906219e+00f, -7.35124588e+00f,
    -7.34342957e+00f, -7.33561325e+00f, -7.32779694e+00f, -7.31998062e+00f,
    -7.31216431e+00f, -7.30434799e+00f, -7.29653168e+00f, -7.28871536e+00f,
    -7.28089905e+00f, -7.27308273e+00f, -7.26526642e+00f, -7.25745010e+00f,
    -7.24963379e+00f, -7.24181747e+00f, -7.23400116e+00f, -7.22618484e+00f,
    -7.21836853e+00f, -7.21055222e+00f, -7.20273590e+00f, -7.19491959e+00f,
    -7.18710327e+00f, -7.17928696e+00f, -7.17147064e+00f, -7.16365433e+00f,
    -7.15583801e+00f, -7.14802170e+00f, -7.14020538e+00f, -7.13238907e+00f,
    -7.12457275e+00f, -7.11675644e+00f, -7.10894012e+00f, -7.10112381e+00f,
    -7.09330750e+00f, -7.08549118e+00f, -7.07767487e+00f, -7.06985855e+00f,
    -7.06204224e+00f, -7.05422592e+00f, -7.04640961e+00f, -7.03859329e+00f,
    -7.03077698e+00f, -7.02296066e+00f, -7.01514435e+00f, -7.00732803e+00f,
    -6.99951124e+00f, -6.99169493e+00f, -6.98387861e+00f, -6.97606230e+00f,
    -6.96824598e+00f, -6.96042967e+00f, -6.95261335e+00f, -6.94479704e+00f,
    -6.93698072e+00f, -6.92916441e+00f, -6.92134809e+00f, -6.91353178e+00f,
    -6.90571547e+00f, -6.89789915e+00f, -6.89008284e+00f, -6.88226652e+00f,
    -6.87445021e+00f, -6.86663389e+00f, -6.85881758e+00f, -6.85100126e+00f,
    -6.84318495e+00f, -6.83536863e+00f, -6.82755232e+00f, -6.81973600e+00f,
    -6.81191969e+00f, -6.80410337e+00f, -6.79628706e+00f, -6.78847075e+00f,
    -6.78065443e+00f, -6.77283812e+00f, -6.76502180e+00f, -6.75720549e+00f,
    -6.74938917e+00f, -6.74157286e+00f, -6.73375654e+00f, -6.72594023e+00f,
    -6.71812391e+00f, -6.71030760e+00f, -6.70249128e+00f, -6.69467497e+00f,
    -6.68685865e+00f, -6.67904234e+00f, -6.67122602e+00f, -6.66340971e+00f,
    -6.65559340e+00f, -6.64777708e+00f, -6.63996077e+00f, -6.63214445e+00f,
    -6.62432814e+00f, -6.61651182e+00f, -6.60869551e+00f, -6.60087919e+00f,
    -6.59306288e+00f, -6.58524656e+00f, -6.57743025e+00f, -6.56961393e+00f,
    -6.56179762e+00f, -6.55398130e+00f, -6.54616499e+00f, -6.53834867e+00f,
    -6.53053236e+00f, -6.52271605e+00f, -6.51489973e+00f, -6.50708342e+00f,
    -6.49926710e+00f, -6.49145079e+00f, -6.48363447e+00f, -6.47581816e+00f,
    -6.46800184e+00f, -6.46018553e+00f, -6.45236921e+00f, -6.44455290e+00f,
    -6.43673658e+00f, -6.42892027e+00f, -6.42110395e+00f, -6.41328764e+00f,
    -6.40547132e+00f, -6.39765501e+00f, -6.38983870e+00f, -6.38202238e+00f,
    -6.37420607e+00f, -6.36638975e+00f, -6.35857344e+00f, -6.35075712e+00f,
    -6.34294081e+00f, -6.33512449e+00f, -6.32730818e+00f, -6.31949186e+00f,
    -6.31167555e+00f, -6.30385923e+00f, -6.29604292e+00f, -6.28822660e+00f,
    -6.28041029e+00f, -6.27259398e+00f, -6.26477766e+00f, -6.25696135e+00f,
    -6.24914503e+00f, -6.24132872e+00f, -6.23351240e+00f, -6.22569609e+00f,
    -6.21787977e+00f, -6.21006346e+00f, -6.20224714e+00f, -6.19443083e+00f,
    -6.18661451e+00f, -6.17879820e+00f, -6.17098188e+00f, -6.16316557e+00f,
    -6.15534925e+00f, -6.14753294e+00f, -6.13971663e+00f, -6.13190031e+00f,
    -6.12408400e+00f, -6.11626768e+00f, -6.10845137e+00f, -6.10063505e+00f,
    -6.09281874e+00f, -6.08500242e+00f, -6.07718611e+00f, -6.06936979e+00f,
    -6.06155348e+00f, -6.05373716e+00f, -6.04592085e+00f, -6.03810453e+00f,
    -6.03028822e+00f, -6.02247190e+00f, -6.01465559e+00f, -6.00683928e+00f,
    -5.99902296e+00f, -5.99120665e+00f, -5.98339033e+00f, -5.97557402e+00f,
    -5.96775770e+00f, -5.95994139e+00f, -5.95212507e+00f, -5.94430876e+00f,
    -5.93649244e+00f, -5.92867613e+00f, -5.92085981e+00f, -5.91304350e+00f,
    -5.90522718e+00f, -5.89741087e+00f, -5.88959455e+00f, -5.88177824e+00f,
    -5.87396193e+00f, -5.86614561e+00f, -5.85832930e+00f, -5.85051298e+00f,
    -5.84269667e+00f, -5.83488035e+00f, -5.82706404e+00f, -5.81924772e+00f,
    -5.81143141e+00f, -5.80361509e+00f, -5.79579878e+00f, -5.78798246e+00f,
    -5.78016615e+00f, -5.77234983e+00f, -5.76453352e+00f, -5.75671721e+00f,
    -5.74890089e+00f, -5.74108458e+00f, -5.73326826e+00f, -5.72545195e+00f,
    -5.71763563e+00f, -5.70981932e+00f, -5.70200300e+00f, -5.69418669e+00f,
    -5.68637037e+00f, -5.67855406e+00f, -5.67073774e+00f, -5.66292143e+00f,
    -5.65510511e+00f, -5.64728880e+00f, -5.63947248e+00f, -5.63165617e+00f,
    -5.62383986e+00f, -5.61602354e+00f, -5.60820723e+00f, -5.60039091e+00f,
    -5.59257460e+00f, -5.58475828e+00f, -5.57694197e+00f, -5.56912565e+00f,
    -5.56130934e+00f, -5.55349302e+00f, -5.54567671e+00f, -5.53786039e+00f,
    -5.53004408e+00f, -5.52222776e+00f, -5.51441145e+00f, -5.50659513e+00f,
    -5.49877882e+00f, -5.49096251e+00f, -5.48314619e+00f, -5.47532988e+00f,
    -5.46751356e+00f, -5.45969725e+00f, -5.45188093e+00f, -5.44406462e+00f,
    -5.43624830e+00f, -5.42843199e+00f, -5.42061567e+00f, -5.41279936e+00f,
    -5.40498304e+00f, -5.39716673e+00f, -5.38935041e+00f, -5.38153410e+00f,
    -5.37371778e+00f, -5.36590147e+00f, -5.35808516e+00f, -5.35026884e+00f,
    -5.34245253e+00f, -5.33463621e+00f, -5.32681990e+00f, -5.31900358e+00f,
    -5.31118727e+00f, -5.30337095e+00f, -5.29555464e+00f, -5.28773832e+00f,
    -5.27992201e+00f, -5.27210569e+00f, -5.26428938e+00f, -5.25647306e+00f,
    -5.24865675e+00f, -5.24084044e+00f, -5.23302412e+00f, -5.22520781e+00f,
    -5.21739149e+00f, -5.20957518e+00f, -5.20175886e+00f, -5.19394255e+00f,
    -5.18612623e+00f, -5.17830992e+00f, -5.17049360e+00f, -5.16267729e+00f,
    -5.15486097e+00f, -5.14704466e+00f, -5.13922834e+00f, -5.13141203e+00f,
    -5.12359571e+00f, -5.11577940e+00f, -5.10796309e+00f, -5.10014677e+00f,
    -5.09233046e+00f, -5.08451414e+00f, -5.07669783e+00f, -5.06888151e+00f,
    -5.06106520e+00f, -5.05324888e+00f, -5.04543257e+00f, -5.03761625e+00f,
    -5.02979994e+00f, -5.02198362e+00f, -5.01416731e+00f, -5.00635099e+00f,
    -4.99853420e+00f, -4.99071789e+00f, -4.98290157e+00f, -4.97508526e+00f,
    -4.96726894e+00f, -4.95945263e+00f, -4.95163631e+00f, -4.94382000e+00f,
    -4.93600368e+00f, -4.92818737e+00f, -4.92037106e+00f, -4.91255474e+00f,
    -4.90473843e+00f, -4.89692211e+00f, -4.88910580e+00f, -4.88128948e+00f,
    -4.87347317e+00f, -4.86565685e+00f, -4.85784054e+00f, -4.85002422e+00f,
    -4.84220791e+00f, -4.83439159e+00f, -4.82657528e+00f, -4.81875896e+00f,
    -4.81094265e+00f, -4.80312634e+00f, -4.79531002e+00f, -4.78749371e+00f,
    -4.77967739e+00f, -4.77186108e+00f, -4.76404476e+00f, -4.75622845e+00f,
    -4.74841213e+00f, -4.74059582e+00f, -4.73277950e+00f, -4.72496319e+00f,
    -4.71714687e+00f, -4.70933056e+00f, -4.70151424e+00f, -4.69369793e+00f,
    -4.68588161e+00f, -4.67806530e+00f, -4.67024899e+00f, -4.66243267e+00f,
    -4.65461636e+00f, -4.64680004e+00f, -4.63898373e+00f, -4.63116741e+00f,
    -4.62335110e+00f, -4.61553478e+00f, -4.60771847e+00f, -4.59990215e+00f,
    -4.59208584e+00f, -4.58426952e+00f, -4.57645321e+00f, -4.56863689e+00f,
    -4.56082058e+00f, -4.55300426e+00f, -4.54518795e+00f, -4.53737164e+00f,
    -4.52955532e+00f, -4.52173901e+00f, -4.51392269e+00f, -4.50610638e+00f,
    -4.49829006e+00f, -4.49047375e+00f, -4.48265743e+00f, -4.47484112e+00f,
    -4.46702480e+00f, -4.45920849e+00f, -4.45139217e+00f, -4.44357586e+00f,
    -4.43575954e+00f, -4.42794323e+00f, -4.42012691e+00f, -4.41231060e+00f,
    -4.40449429e+00f, -4.39667797e+00f, -4.38886166e+00f, -4.38104534e+00f,
    -4.37322903e+00f, -4.36541271e+00f, -4.35759640e+00f, -4.34978008e+00f,
    -4.34196377e+00f, -4.33414745e+00f, -4.32633114e+00f, -4.31851482e+00f,
    -4.31069851e+00f, -4.30288219e+00f, -4.29506588e+00f, -4.28724957e+00f,
    -4.27943325e+00f, -4.27161694e+00f, -4.26380062e+00f, -4.25598431e+00f,
    -4.24816799e+00f, -4.24035168e+00f, -4.23253536e+00f, -4.22471905e+00f,
    -4.21690273e+00f, -4.20908642e+00f, -4.20127010e+00f, -4.19345379e+00f,
    -4.18563747e+00f, -4.17782116e+00f, -4.17000484e+00f, -4.16218853e+00f,
    -4.15437222e+00f, -4.14655590e+00f, -4.13873959e+00f, -4.13092327e+00f,
    -4.12310696e+00f, -4.11529064e+00f, -4.10747433e+00f, -4.09965801e+00f,
    -4.09184170e+00f, -4.08402538e+00f, -4.07620907e+00f, -4.06839275e+00f,
    -4.06057644e+00f, -4.05276012e+00f, -4.04494381e+00f, -4.03712749e+00f,
    -4.02931118e+00f, -4.02149487e+00f, -4.01367855e+00f, -4.00586224e+00f,
    -3.99804592e+00f, -3.99022961e+00f, -3.98241329e+00f, -3.97459698e+00f,
    -3.96678066e+00f, -3.95896435e+00f, -3.95114803e+00f, -3.94333172e+00f,
    -3.93551540e+00f, -3.92769909e+00f, -3.91988277e+00f, -3.91206646e+00f,
    -3.90425014e+00f, -3.89643383e+00f, -3.88861752e+00f, -3.88080120e+00f,
    -3.87298489e+00f, -3.86516857e+00f, -3.85735226e+00f, -3.84953594e+00f,
    -3.84171963e+00f, -3.83390331e+00f, -3.82608700e+00f, -3.81827068e+00f,
    -3.81045437e+00f, -3.80263805e+00f, -3.79482174e+00f, -3.78700542e+00f,
    -3.77918911e+00f, -3.77137280e+00f, -3.76355648e+00f, -3.75574017e+00f,
    -3.74792385e+00f, -3.74010754e+00f, -3.73229122e+00f, -3.72447491e+00f,
    -3.71665859e+00f, -3.70884228e+00f, -3.70102596e+00f, -3.69320965e+00f,
    -3.68539333e+00f, -3.67757702e+00f, -3.66976070e+00f, -3.66194439e+00f,
    -3.65412807e+00f, -3.64631176e+00f, -3.63849545e+00f, -3.63067913e+00f,
    -3.62286282e+00f, -3.61504650e+00f, -3.60723019e+00f, -3.59941387e+00f,
    -3.59159756e+00f, -3.58378124e+00f, -3.57596493e+00f, -3.56814861e+00f,
    -3.56033230e+00f, -3.55251598e+00f, -3.54469967e+00f, -3.53688335e+00f,
    -3.52906704e+00f, -3.52125072e+00f, -3.51343441e+00f, -3.50561810e+00f,
    -3.49780154e+00f, -3.48998523e+00f, -3.48216891e+00f, -3.47435260e+00f,
    -3.46653628e+00f, -3.45871997e+00f, -3.45090365e+00f, -3.44308734e+00f,
    -3.43527102e+00f, -3.42745471e+00f, -3.41963840e+00f, -3.41182208e+00f,
    -3.40400577e+00f, -3.39618945e+00f, -3.38837314e+00f, -3.38055682e+00f,
    -3.37274051e+00f, -3.36492419e+00f, -3.35710788e+00f, -3.34929156e+00f,
    -3.34147525e+00f, -3.33365893e+00f, -3.32584262e+00f, -3.31802630e+00f,
    -3.31020999e+00f, -3.30239367e+00f, -3.29457736e+00f, -3.28676105e+00f,
    -3.27894473e+00f, -3.27112842e+00f, -3.26331210e+00f, -3.25549579e+00f,
    -3.24767947e+00f, -3.23986316e+00f, -3.23204684e+00f, -3.22423053e+00f,
    -3.21641421e+00f, -3.20859790e+00f, -3.20078158e+00f, -3.19296527e+00f,
    -3.18514895e+00f, -3.17733264e+00f, -3.16951632e+00f, -3.16170001e+00f,
    -3.15388370e+00f, -3.14606738e+00f, -3.13825107e+00f, -3.13043475e+00f,
    -3.12261844e+00f, -3.11480212e+00f, -3.10698581e+00f, -3.09916949e+00f,
    -3.09135318e+00f, -3.08353686e+00f, -3.07572055e+00f, -3.06790423e+00f,
    -3.06008792e+00f, -3.05227160e+00f, -3.04445529e+00f, -3.03663898e+00f,
    -3.02882266e+00f, -3.02100635e+00f, -3.01319003e+00f, -3.00537372e+00f,
    -2.99755740e+00f, -2.98974109e+00f, -2.98192477e+00f, -2.97410846e+00f,
    -2.96629214e+00f, -2.95847583e+00f, -2.95065951e+00f, -2.94284320e+00f,
    -2.93502688e+00f, -2.92721057e+00f, -2.91939425e+00f, -2.91157794e+00f,
    -2.90376163e+00f, -2.89594531e+00f, -2.88812900e+00f, -2.88031268e+00f,
    -2.87249637e+00f, -2.86468005e+00f, -2.85686374e+00f, -2.84904742e+00f,
    -2.84123111e+00f, -2.83341479e+00f, -2.82559848e+00f, -2.81778216e+00f,
    -2.80996585e+00f, -2.80214953e+00f, -2.79433322e+00f, -2.78651690e+00f,
    -2.77870059e+00f, -2.77088428e+00f, -2.76306796e+00f, -2.75525165e+00f,
    -2.74743533e+00f, -2.73961902e+00f, -2.73180270e+00f, -2.72398639e+00f,
    -2.71617007e+00f, -2.70835376e+00f, -2.70053744e+00f, -2.69272113e+00f,
    -2.68490481e+00f, -2.67708850e+00f, -2.66927218e+00f, -2.66145587e+00f,
    -2.65363955e+00f, -2.64582324e+00f, -2.63800693e+00f, -2.63019061e+00f,
    -2.62237430e+00f, -2.61455798e+00f, -2.60674167e+00f, -2.59892535e+00f,
    -2.59110904e+00f, -2.58329272e+00f, -2.57547641e+00f, -2.56766009e+00f,
    -2.55984378e+00f, -2.55202746e+00f, -2.54421115e+00f, -2.53639483e+00f,
    -2.52857852e+00f, -2.52076221e+00f, -2.51294589e+00f, -2.50512958e+00f,
    -2.49731302e+00f, -2.48949671e+00f, -2.48168039e+00f, -2.47386408e+00f,
    -2.46604776e+00f, -2.45823145e+00f, -2.45041513e+00f, -2.44259882e+00f,
    -2.43478251e+00f, -2.42696619e+00f, -2.41914988e+00f, -2.41133356e+00f,
    -2.40351725e+00f, -2.39570093e+00f, -2.38788462e+00f, -2.38006830e+00f,
    -2.37225199e+00f, -2.36443567e+00f, -2.35661936e+00f, -2.34880304e+00f,
    -2.34098673e+00f, -2.33317041e+00f, -2.32535410e+00f, -2.31753778e+00f,
    -2.30972147e+00f, -2.30190516e+00f, -2.29408884e+00f, -2.28627253e+00f,
    -2.27845621e+00f, -2.27063990e+00f, -2.26282358e+00f, -2.25500727e+00f,
    -2.24719095e+00f, -2.23937464e+00f, -2.23155832e+00f, -2.22374201e+00f,
    -2.21592569e+00f, -2.20810938e+00f, -2.20029306e+00f, -2.19247675e+00f,
    -2.18466043e+00f, -2.17684412e+00f, -2.16902781e+00f, -2.16121149e+00f,
    -2.15339518e+00f, -2.14557886e+00f, -2.13776255e+00f, -2.12994623e+00f,
    -2.12212992e+00f, -2.11431360e+00f, -2.10649729e+00f, -2.09868097e+00f,
    -2.09086466e+00f, -2.08304834e+00f, -2.07523203e+00f, -2.06741571e+00f,
    -2.05959940e+00f, -2.05178308e+00f, -2.04396677e+00f, -2.03615046e+00f,
    -2.02833414e+00f, -2.02051783e+00f, -2.01270151e+00f, -2.00488520e+00f,
    -1.99706888e+00f, -1.98925257e+00f, -1.98143625e+00f, -1.97361994e+00f,
    -1.96580362e+00f, -1.95798731e+00f, -1.95017099e+00f, -1.94235468e+00f,
    -1.93453836e+00f, -1.92672205e+00f, -1.91890574e+00f, -1.91108942e+00f,
    -1.90327311e+00f, -1.89545679e+00f, -1.88764048e+00f, -1.87982416e+00f,
    -1.87200785e+00f, -1.86419153e+00f, -1.85637522e+00f, -1.84855890e+00f,
    -1.84074259e+00f, -1.83292627e+00f, -1.82510996e+00f, -1.81729364e+00f,
    -1.80947733e+00f, -1.80166101e+00f, -1.79384470e+00f, -1.78602839e+00f,
    -1.77821207e+00f, -1.77039576e+00f, -1.76257944e+00f, -1.75476313e+00f,
    -1.74694669e+00f, -1.73913038e+00f, -1.73131406e+00f, -1.72349775e+00f,
    -1.71568143e+00f, -1.70786512e+00f, -1.70004880e+00f, -1.69223249e+00f,
    -1.68441617e+00f, -1.67659986e+00f, -1.66878355e+00f, -1.66096723e+00f,
    -1.65315092e+00f, -1.64533460e+00f, -1.63751829e+00f, -1.62970197e+00f,
    -1.62188566e+00f, -1.61406934e+00f, -1.60625303e+00f, -1.59843671e+00f,
    -1.59062040e+00f, -1.58280408e+00f, -1.57498777e+00f, -1.56717145e+00f,
    -1.55935514e+00f, -1.55153883e+00f, -1.54372251e+00f, -1.53590620e+00f,
    -1.52808988e+00f, -1.52027357e+00f, -1.51245725e+00f, -1.50464094e+00f,
    -1.49682462e+00f, -1.48900831e+00f, -1.48119199e+00f, -1.47337568e+00f,
    -1.46555936e+00f, -1.45774305e+00f, -1.44992673e+00f, -1.44211042e+00f,
    -1.43429410e+00f, -1.42647779e+00f, -1.41866148e+00f, -1.41084516e+00f,
    -1.40302885e+00f, -1.39521253e+00f, -1.38739622e+00f, -1.37957990e+00f,
    -1.37176359e+00f, -1.36394727e+00f, -1.35613096e+00f, -1.34831464e+00f,
    -1.34049833e+00f, -1.33268201e+00f, -1.32486570e+00f, -1.31704938e+00f,
    -1.30923307e+00f, -1.30141675e+00f, -1.29360044e+00f, -1.28578413e+00f,
    -1.27796781e+00f, -1.27015150e+00f, -1.26233518e+00f, -1.25451887e+00f,
    -1.24670243e+00f, -1.23888612e+00f, -1.23106980e+00f, -1.22325349e+00f,
    -1.21543717e+00f, -1.20762086e+00f, -1.19980454e+00f, -1.19198823e+00f,
    -1.18417192e+00f, -1.17635560e+00f, -1.16853929e+00f, -1.16072297e+00f,
    -1.15290666e+00f, -1.14509034e+00f, -1.13727403e+00f, -1.12945771e+00f,
    -1.12164140e+00f, -1.11382508e+00f, -1.10600877e+00f, -1.09819245e+00f,
    -1.09037614e+00f, -1.08255982e+00f, -1.07474351e+00f, -1.06692719e+00f,
    -1.05911088e+00f, -1.05129457e+00f, -1.04347825e+00f, -1.03566194e+00f,
    -1.02784562e+00f, -1.02002931e+00f, -1.01221299e+00f, -1.00439668e+00f,
    -9.96580362e-01f, -9.88764048e-01f, -9.80947733e-01f, -9.73131418e-01f,
    -9.65315104e-01f, -9.57498789e-01f, -9.49682474e-01f, -9.41866159e-01f,
    -9.34049845e-01f, -9.26233530e-01f, -9.18417215e-01f, -9.10600901e-01f,
    -9.02784586e-01f, -8.94968271e-01f, -8.87151957e-01f, -8.79335642e-01f,
    -8.71519268e-01f, -8.63702953e-01f, -8.55886638e-01f, -8.48070323e-01f,
    -8.40254009e-01f, -8.32437694e-01f, -8.24621379e-01f, -8.16805065e-01f,
    -8.08988750e-01f, -8.01172435e-01f, -7.93356121e-01f, -7.85539806e-01f,
    -7.77723491e-01f, -7.69907176e-01f, -7.62090862e-01f, -7.54274547e-01f,
    -7.46458232e-01f, -7.38641918e-01f, -7.30825603e-01f, -7.23009288e-01f,
    -7.15192974e-01f, -7.07376659e-01f, -6.99560344e-01f, -6.91744030e-01f,
    -6.83927715e-01f, -6.76111400e-01f, -6.68295085e-01f, -6.60478771e-01f,
    -6.52662456e-01f, -6.44846141e-01f, -6.37029827e-01f, -6.29213512e-01f,
    -6.21397138e-01f, -6.13580823e-01f, -6.05764508e-01f, -5.97948194e-01f,
    -5.90131879e-01f, -5.82315564e-01f, -5.74499249e-01f, -5.66682935e-01f,
    -5.58866620e-01f, -5.51050305e-01f, -5.43233991e-01f, -5.35417676e-01f,
    -5.27601361e-01f, -5.19785047e-01f, -5.11968732e-01f, -5.04152417e-01f,
    -4.96336102e-01f, -4.88519788e-01f, -4.80703473e-01f, -4.72887158e-01f,
    -4.65070844e-01f, -4.57254529e-01f, -4.49438214e-01f, -4.41621900e-01f,
    -4.33805555e-01f, -4.25989240e-01f, -4.18172926e-01f, -4.10356611e-01f,
    -4.02540296e-01f, -3.94723982e-01f, -3.86907667e-01f, -3.79091352e-01f,
    -3.71275038e-01f, -3.63458723e-01f, -3.55642408e-01f, -3.47826093e-01f,
    -3.40009779e-01f, -3.32193464e-01f, -3.24377149e-01f, -3.16560835e-01f,
    -3.08744490e-01f, -3.00928175e-01f, -2.93111861e-01f, -2.85295546e-01f,
    -2.77479231e-01f, -2.69662917e-01f, -2.61846602e-01f, -2.54030287e-01f,
    -2.46213973e-01f, -2.38397658e-01f, -2.30581343e-01f, -2.22765028e-01f,
    -2.14948699e-01f, -2.07132384e-01f, -1.99316069e-01f, -1.91499755e-01f,
    -1.83683440e-01f, -1.75867125e-01f, -1.68050811e-01f, -1.60234496e-01f,
    -1.52418166e-01f, -1.44601852e-01f, -1.36785537e-01f, -1.28969222e-01f,
    -1.21152908e-01f, -1.13336593e-01f, -1.05520271e-01f, -9.77039561e-02f,
    -8.98876414e-02f, -8.20713267e-02f, -7.42550045e-02f, -6.64386898e-02f,
    -5.86223751e-02f, -5.08060567e-02f, -4.29897420e-02f, -3.51734236e-02f,
    -2.73571089e-02f, -1.95407923e-02f, -1.17244748e-02f, -3.90815828e-03f,
    3.90815828e-03f, 1.17244748e-02f, 1.95407923e-02f, 2.73571089e-02f,
    3.51734236e-02f, 4.29897420e-02f, 5.08060567e-02f, 5.86223751e-02f,
    6.64386898e-02f, 7.42550045e-02f, 8.20713267e-02f, 8.98876414e-02f,
    9.77039561e-02f, 1.05520271e-01f, 1.13336593e-01f, 1.21152908e-01f,
    1.28969222e-01f, 1.36785537e-01f, 1.44601852e-01f, 1.52418166e-01f,
    1.60234496e-01f, 1.68050811e-01f, 1.75867125e-01f, 1.83683440e-01f,
    1.91499755e-01f, 1.99316069e-01f, 2.07132384e-01f, 2.14948699e-01f,
    2.22765028e-01f, 2.30581343e-01f, 2.38397658e-01f, 2.46213973e-01f,
    2.54030287e-01f, 2.61846602e-01f, 2.69662917e-01f, 2.77479231e-01f,
    2.85295546e-01f, 2.93111861e-01f, 3.00928175e-01f, 3.08744490e-01f,
    3.16560835e-01f, 3.24377149e-01f, 3.32193464e-01f, 3.40009779e-01f,
    3.47826093e-01f, 3.55642408e-01f, 3.63458723e-01f, 3.71275038e-01f,
    3.79091352e-01f, 3.86907667e-01f, 3.94723982e-01f, 4.02540296e-01f,
    4.10356611e-01f, 4.18172926e-01f, 4.25989240e-01f, 4.33805555e-01f,
    4.41621900e-01f, 4.49438214e-01f, 4.57254529e-01f, 4.65070844e-01f,
    4.72887158e-01f, 4.80703473e-01f, 4.88519788e-01f, 4.96336102e-01f,
    5.04152417e-01f, 5.11968732e-01f, 5.19785047e-01f, 5.27601361e-01f,
    5.35417676e-01f, 5.43233991e-01f, 5.51050305e-01f, 5.58866620e-01f,
    5.66682935e-01f, 5.74499249e-01f, 5.82315564e-01f, 5.90131879e-01f,
    5.97948194e-01f, 6.05764508e-01f, 6.13580823e-01f, 6.21397138e-01f,
    6.29213512e-01f, 6.37029827e-01f, 6.44846141e-01f, 6.52662456e-01f,
    6.60478771e-01f, 6.68295085e-01f, 6.76111400e-01f, 6.83927715e-01f,
    6.91744030e-01f, 6.99560344e-01f, 7.07376659e-01f, 7.15192974e-01f,
    7.23009288e-01f, 7.30825603e-01f, 7.38641918e-01f, 7.46458232e-01f,
    7.54274547e-01f, 7.62090862e-01f, 7.69907176e-01f, 7.77723491e-01f,
    7.85539806e-01f, 7.93356121e-01f, 8.01172435e-01f, 8.08988750e-01f,
    8.16805065e-01f, 8.24621379e-01f, 8.32437694e-01f, 8.40254009e-01f,
    8.48070323e-01f, 8.55886638e-01f, 8.63702953e-01f, 8.71519268e-01f,
    8.79335642e-01f, 8.87151957e-01f, 8.94968271e-01f, 9.02784586e-01f,
    9.10600901e-01f, 9.18417215e-01f, 9.26233530e-01f, 9.34049845e-01f,
    9.41866159e-01f, 9.49682474e-01f, 9.57498789e-01f, 9.65315104e-01f,
    9.73131418e-01f, 9.80947733e-01f, 9.88764048e-01f, 9.96580362e-01f,
    1.00439668e+00f, 1.01221299e+00f, 1.02002931e+00f, 1.02784562e+00f,
    1.03566194e+00f, 1.04347825e+00f, 1.05129457e+00f, 1.05911088e+00f,
    1.06692719e+00f, 1.07474351e+00f, 1.08255982e+00f, 1.09037614e+00f,
    1.09819245e+00f, 1.10600877e+00f, 1.11382508e+00f, 1.12164140e+00f,
    1.12945771e+00f, 1.13727403e+00f, 1.14509034e+00f, 1.15290666e+00f,
    1.16072297e+00f, 1.16853929e+00f, 1.17635560e+00f, 1.18417192e+00f,
    1.19198823e+00f, 1.19980454e+00f, 1.20762086e+00f, 1.21543717e+00f,
    1.22325349e+00f, 1.23106980e+00f, 1.23888612e+00f, 1.24670243e+00f,
    1.25451887e+00f, 1.26233518e+00f, 1.27015150e+00f, 1.27796781e+00f,
    1.28578413e+00f, 1.29360044e+00f, 1.30141675e+00f, 1.30923307e+00f,
    1.31704938e+00f, 1.32486570e+00f, 1.33268201e+00f, 1.34049833e+00f,
    1.34831464e+00f, 1.35613096e+00f, 1.36394727e+00f, 1.37176359e+00f,
    1.37957990e+00f, 1.38739622e+00f, 1.39521253e+00f, 1.40302885e+00f,
    1.41084516e+00f, 1.41866148e+00f, 1.42647779e+00f, 1.43429410e+00f,
    1.44211042e+00f, 1.44992673e+00f, 1.45774305e+00f, 1.46555936e+00f,
    1.47337568e+00f, 1.48119199e+00f, 1.48900831e+00f, 1.49682462e+00f,
    1.50464094e+00f, 1.51245725e+00f, 1.52027357e+00f, 1.52808988e+00f,
    1.53590620e+00f, 1.54372251e+00f, 1.55153883e+00f, 1.55935514e+00f,
    1.56717145e+00f, 1.57498777e+00f, 1.58280408e+00f, 1.59062040e+00f,
    1.59843671e+00f, 1.60625303e+00f, 1.61406934e+00f, 1.62188566e+00f,
    1.62970197e+00f, 1.63751829e+00f, 1.64533460e+00f, 1.65315092e+00f,
    1.66096723e+00f, 1.66878355e+00f, 1.67659986e+00f, 1.68441617e+00f,
    1.69223249e+00f, 1.70004880e+00f, 1.70786512e+00f, 1.71568143e+00f,
    1.72349775e+00f, 1.73131406e+00f, 1.73913038e+00f, 1.74694669e+00f,
    1.75476313e+00f, 1.76257944e+00f, 1.77039576e+00f, 1.77821207e+00f,
    1.78602839e+00f, 1.79384470e+00f, 1.80166101e+00f, 1.80947733e+00f,
    1.81729364e+00f, 1.82510996e+00f, 1.83292627e+00f, 1.84074259e+00f,
    1.84855890e+00f, 1.85637522e+00f, 1.86419153e+00f, 1.87200785e+00f,
    1.87982416e+00f, 1.88764048e+00f, 1.89545679e+00f, 1.90327311e+00f,
    1.91108942e+00f, 1.91890574e+00f, 1.92672205e+00f, 1.93453836e+00f,
    1.94235468e+00f, 1.95017099e+00f, 1.95798731e+00f, 1.96580362e+00f,
    1.97361994e+00f, 1.98143625e+00f, 1.98925257e+00f, 1.99706888e+00f,
    2.00488520e+00f, 2.01270151e+00f, 2.02051783e+00f, 2.02833414e+00f,
    2.03615046e+00f, 2.04396677e+00f, 2.05178308e+00f, 2.05959940e+00f,
    2.06741571e+00f, 2.07523203e+00f, 2.08304834e+00f, 2.09086466e+00f,
    2.09868097e+00f, 2.10649729e+00f, 2.11431360e+00f, 2.12212992e+00f,
    2.12994623e+00f, 2.13776255e+00f, 2.14557886e+00f, 2.15339518e+00f,
    2.16121149e+00f, 2.16902781e+00f, 2.17684412e+00f, 2.18466043e+00f,
    2.19247675e+00f, 2.20029306e+00f, 2.20810938e+00f, 2.21592569e+00f,
    2.22374201e+00f, 2.23155832e+00f, 2.23937464e+00f, 2.24719095e+00f,
    2.25500727e+00f, 2.26282358e+00f, 2.27063990e+00f, 2.27845621e+00f,
    2.28627253e+00f, 2.29408884e+00f, 2.30190516e+00f, 2.30972147e+00f,
    2.31753778e+00f, 2.32535410e+00f, 2.33317041e+00f, 2.34098673e+00f,
    2.34880304e+00f, 2.35661936e+00f, 2.36443567e+00f, 2.37225199e+00f,
    2.38006830e+00f, 2.38788462e+00f, 2.39570093e+00f, 2.40351725e+00f,
    2.41133356e+00f, 2.41914988e+00f, 2.42696619e+00f, 2.43478251e+00f,
    2.44259882e+00f, 2.45041513e+00f, 2.45823145e+00f, 2.46604776e+00f,
    2.47386408e+00f, 2.48168039e+00f, 2.48949671e+00f, 2.49731302e+00f,
    2.50512958e+00f, 2.51294589e+00f, 2.52076221e+00f, 2.52857852e+00f,
    2.53639483e+00f, 2.54421115e+00f, 2.55202746e+00f, 2.55984378e+00f,
    2.56766009e+00f, 2.57547641e+00f, 2.58329272e+00f, 2.59110904e+00f,
    2.59892535e+00f, 2.60674167e+00f, 2.61455798e+00f, 2.62237430e+00f,
    2.63019061e+00f, 2.63800693e+00f, 2.64582324e+00f, 2.65363955e+00f,
    2.66145587e+00f, 2.66927218e+00f, 2.67708850e+00f, 2.68490481e+00f,
    2.69272113e+00f, 2.70053744e+00f, 2.70835376e+00f, 2.71617007e+00f,
    2.72398639e+00f, 2.73180270e+00f, 2.73961902e+00f, 2.74743533e+00f,
    2.75525165e+00f, 2.76306796e+00f, 2.77088428e+00f, 2.77870059e+00f,
    2.78651690e+00f, 2.79433322e+00f, 2.80214953e+00f, 2.80996585e+00f,
    2.81778216e+00f, 2.82559848e+00f, 2.83341479e+00f, 2.84123111e+00f,
    2.84904742e+00f, 2.85686374e+00f, 2.86468005e+00f, 2.87249637e+00f,
    2.88031268e+00f, 2.88812900e+00f, 2.89594531e+00f, 2.90376163e+00f,
    2.91157794e+00f, 2.91939425e+00f, 2.92721057e+00f, 2.93502688e+00f,
    2.94284320e+00f, 2.95065951e+00f, 2.95847583e+00f, 2.96629214e+00f,
    2.97410846e+00f, 2.98192477e+00f, 2.98974109e+00f, 2.99755740e+00f,
    3.00537372e+00f, 3.01319003e+00f, 3.02100635e+00f, 3.02882266e+00f,
    3.03663898e+00f, 3.04445529e+00f, 3.05227160e+00f, 3.06008792e+00f,
    3.06790423e+00f, 3.07572055e+00f, 3.08353686e+00f, 3.09135318e+00f,
    3.09916949e+00f, 3.10698581e+00f, 3.11480212e+00f, 3.12261844e+00f,
    3.13043475e+00f, 3.13825107e+00f, 3.14606738e+00f, 3.15388370e+00f,
    3.16170001e+00f, 3.16951632e+00f, 3.17733264e+00f, 3.18514895e+00f,
    3.19296527e+00f, 3.20078158e+00f, 3.20859790e+00f, 3.21641421e+00f,
    3.22423053e+00f, 3.23204684e+00f, 3.23986316e+00f, 3.24767947e+00f,
    3.25549579e+00f, 3.26331210e+00f, 3.27112842e+00f, 3.27894473e+00f,
    3.28676105e+00f, 3.29457736e+00f, 3.30239367e+00f, 3.31020999e+00f,
    3.31802630e+00f, 3.32584262e+00f, 3.33365893e+00f, 3.34147525e+00f,
    3.34929156e+00f, 3.35710788e+00f, 3.36492419e+00f, 3.37274051e+00f,
    3.38055682e+00f, 3.38837314e+00f, 3.39618945e+00f, 3.40400577e+00f,
    3.41182208e+00f, 3.41963840e+00f, 3.42745471e+00f, 3.43527102e+00f,
    3.44308734e+00f, 3.45090365e+00f, 3.45871997e+00f, 3.46653628e+00f,
    3.47435260e+00f, 3.48216891e+00f, 3.48998523e+00f, 3.49780154e+00f,
    3.50561810e+00f, 3.51343441e+00f, 3.52125072e+00f, 3.52906704e+00f,
    3.53688335e+00f, 3.54469967e+00f, 3.55251598e+00f, 3.56033230e+00f,
    3.56814861e+00f, 3.57596493e+00f, 3.58378124e+00f, 3.59159756e+00f,
    3.59941387e+00f, 3.60723019e+00f, 3.61504650e+00f, 3.62286282e+00f,
    3.63067913e+00f, 3.63849545e+00f, 3.64631176e+00f, 3.65412807e+00f,
    3.66194439e+00f, 3.66976070e+00f, 3.67757702e+00f, 3.68539333e+00f,
    3.69320965e+00f, 3.70102596e+00f, 3.70884228e+00f, 3.71665859e+00f,
    3.72447491e+00f, 3.73229122e+00f, 3.74010754e+00f, 3.74792385e+00f,
    3.75574017e+00f, 3.76355648e+00f, 3.77137280e+00f, 3.77918911e+00f,
    3.78700542e+00f, 3.79482174e+00f, 3.80263805e+00f, 3.81045437e+00f,
    3.81827068e+00f, 3.82608700e+00f, 3.83390331e+00f, 3.84171963e+00f,
    3.84953594e+00f, 3.85735226e+00f, 3.86516857e+00f, 3.87298489e+00f,
    3.88080120e+00f, 3.88861752e+00f, 3.89643383e+00f, 3.90425014e+00f,
    3.91206646e+00f, 3.91988277e+00f, 3.92769909e+00f, 3.93551540e+00f,
    3.94333172e+00f, 3.95114803e+00f, 3.95896435e+00f, 3.96678066e+00f,
    3.97459698e+00f, 3.98241329e+00f, 3.99022961e+00f, 3.99804592e+00f,
    4.00586224e+00f, 4.01367855e+00f, 4.02149487e+00f, 4.02931118e+00f,
    4.03712749e+00f, 4.04494381e+00f, 4.05276012e+00f, 4.06057644e+00f,
    4.06839275e+00f, 4.07620907e+00f, 4.08402538e+00f, 4.09184170e+00f,
    4.09965801e+00f, 4.10747433e+00f, 4.11529064e+00f, 4.12310696e+00f,
    4.13092327e+00f, 4.13873959e+00f, 4.14655590e+00f, 4.15437222e+00f,
    4.16218853e+00f, 4.17000484e+00f, 4.17782116e+00f, 4.18563747e+00f,
    4.19345379e+00f, 4.20127010e+00f, 4.20908642e+00f, 4.21690273e+00f,
    4.22471905e+00f, 4.23253536e+00f, 4.24035168e+00f, 4.24816799e+00f,
    4.25598431e+00f, 4.26380062e+00f, 4.27161694e+00f, 4.27943325e+00f,
    4.28724957e+00f, 4.29506588e+00f, 4.30288219e+00f, 4.31069851e+00f,
    4.31851482e+00f, 4.32633114e+00f, 4.33414745e+00f, 4.34196377e+00f,
    4.34978008e+00f, 4.35759640e+00f, 4.36541271e+00f, 4.37322903e+00f,
    4.38104534e+00f, 4.38886166e+00f, 4.39667797e+00f, 4.40449429e+00f,
    4.41231060e+00f, 4.42012691e+00f, 4.42794323e+00f, 4.43575954e+00f,
    4.44357586e+00f, 4.45139217e+00f, 4.45920849e+00f, 4.46702480e+00f,
    4.47484112e+00f, 4.48265743e+00f, 4.49047375e+00f, 4.49829006e+00f,
    4.50610638e+00f, 4.51392269e+00f, 4.52173901e+00f, 4.52955532e+00f,
    4.53737164e+00f, 4.54518795e+00f, 4.55300426e+00f, 4.56082058e+00f,
    4.56863689e+00f, 4.57645321e+00f, 4.58426952e+00f, 4.59208584e+00f,
    4.59990215e+00f, 4.60771847e+00f, 4.61553478e+00f, 4.62335110e+00f,
    4.63116741e+00f, 4.63898373e+00f, 4.64680004e+00f, 4.65461636e+00f,
    4.66243267e+00f, 4.67024899e+00f, 4.67806530e+00f, 4.68588161e+00f,
    4.69369793e+00f, 4.70151424e+00f, 4.70933056e+00f, 4.71714687e+00f,
    4.72496319e+00f, 4.73277950e+00f, 4.74059582e+00f, 4.74841213e+00f,
    4.75622845e+00f, 4.76404476e+00f, 4.77186108e+00f, 4.77967739e+00f,
    4.78749371e+00f, 4.79531002e+00f, 4.80312634e+00f, 4.81094265e+00f,
    4.81875896e+00f, 4.82657528e+00f, 4.83439159e+00f, 4.84220791e+00f,
    4.85002422e+00f, 4.85784054e+00f, 4.86565685e+00f, 4.87347317e+00f,
    4.88128948e+00f, 4.88910580e+00f, 4.89692211e+00f, 4.90473843e+00f,
    4.91255474e+00f, 4.92037106e+00f, 4.92818737e+00f, 4.93600368e+00f,
    4.94382000e+00f, 4.95163631e+00f, 4.95945263e+00f, 4.96726894e+00f,
    4.97508526e+00f, 4.98290157e+00f, 4.99071789e+00f, 4.99853420e+00f,
    5.00635099e+00f, 5.01416731e+00f, 5.02198362e+00f, 5.02979994e+00f,
    5.03761625e+00f, 5.04543257e+00f, 5.05324888e+00f, 5.06106520e+00f,
    5.06888151e+00f, 5.07669783e+00f, 5.08451414e+00f, 5.09233046e+00f,
    5.10014677e+00f, 5.10796309e+00f, 5.11577940e+00f, 5.12359571e+00f,
    5.13141203e+00f, 5.13922834e+00f, 5.14704466e+00f, 5.15486097e+00f,
    5.16267729e+00f, 5.17049360e+00f, 5.17830992e+00f, 5.18612623e+00f,
    5.19394255e+00f, 5.20175886e+00f, 5.20957518e+00f, 5.21739149e+00f,
    5.22520781e+00f, 5.23302412e+00f, 5.24084044e+00f, 5.24865675e+00f,
    5.25647306e+00f, 5.26428938e+00f, 5.27210569e+00f, 5.27992201e+00f,
    5.28773832e+00f, 5.29555464e+00f, 5.30337095e+00f, 5.31118727e+00f,
    5.31900358e+00f, 5.32681990e+00f, 5.33463621e+00f, 5.34245253e+00f,
    5.35026884e+00f, 5.35808516e+00f, 5.36590147e+00f, 5.37371778e+00f,
    5.38153410e+00f, 5.38935041e+00f, 5.39716673e+00f, 5.40498304e+00f,
    5.41279936e+00f, 5.42061567e+00f, 5.42843199e+00f, 5.43624830e+00f,
    5.44406462e+00f, 5.45188093e+00f, 5.45969725e+00f, 5.46751356e+00f,
    5.47532988e+00f, 5.48314619e+00f, 5.49096251e+00f, 5.49877882e+00f,
    5.50659513e+00f, 5.51441145e+00f, 5.52222776e+00f, 5.53004408e+00f,
    5.53786039e+00f, 5.54567671e+00f, 5.55349302e+00f, 5.56130934e+00f,
    5.56912565e+00f, 5.57694197e+00f, 5.58475828e+00f, 5.59257460e+00f,
    5.60039091e+00f, 5.60820723e+00f, 5.61602354e+00f, 5.62383986e+00f,
    5.63165617e+00f, 5.63947248e+00f, 5.64728880e+00f, 5.65510511e+00f,
    5.66292143e+00f, 5.67073774e+00f, 5.67855406e+00f, 5.68637037e+00f,
    5.69418669e+00f, 5.70200300e+00f, 5.70981932e+00f, 5.71763563e+00f,
    5.72545195e+00f, 5.73326826e+00f, 5.74108458e+00f, 5.74890089e+00f,
    5.75671721e+00f, 5.76453352e+00f, 5.77234983e+00f, 5.78016615e+00f,
    5.78798246e+00f, 5.79579878e+00f, 5.80361509e+00f, 5.81143141e+00f,
    5.81924772e+00f, 5.82706404e+00f, 5.83488035e+00f, 5.84269667e+00f,
    5.85051298e+00f, 5.85832930e+00f, 5.86614561e+00f, 5.87396193e+00f,
    5.88177824e+00f, 5.88959455e+00f, 5.89741087e+00f, 5.90522718e+00f,
    5.91304350e+00f, 5.92085981e+00f, 5.92867613e+00f, 5.93649244e+00f,
    5.94430876e+00f, 5.95212507e+00f, 5.95994139e+00f, 5.96775770e+00f,
    5.97557402e+00f, 5.98339033e+00f, 5.99120665e+00f, 5.99902296e+00f,
    6.00683928e+00f, 6.01465559e+00f, 6.02247190e+00f, 6.03028822e+00f,
    6.03810453e+00f, 6.04592085e+00f, 6.05373716e+00f, 6.06155348e+00f,
    6.06936979e+00f, 6.07718611e+00f, 6.08500242e+00f, 6.09281874e+00f,
    6.10063505e+00f, 6.10845137e+00f, 6.11626768e+00f, 6.12408400e+00f,
    6.13190031e+00f, 6.13971663e+00f, 6.14753294e+00f, 6.15534925e+00f,
    6.16316557e+00f, 6.17098188e+00f, 6.17879820e+00f, 6.18661451e+00f,
    6.19443083e+00f, 6.20224714e+00f, 6.21006346e+00f, 6.21787977e+00f,
    6.22569609e+00f, 6.23351240e+00f, 6.24132872e+00f, 6.24914503e+00f,
    6.25696135e+00f, 6.26477766e+00f, 6.27259398e+00f, 6.28041029e+00f,
    6.28822660e+00f, 6.29604292e+00f, 6.30385923e+00f, 6.31167555e+00f,
    6.31949186e+00f, 6.32730818e+00f, 6.33512449e+00f, 6.34294081e+00f,
    6.35075712e+00f, 6.35857344e+00f, 6.36638975e+00f, 6.37420607e+00f,
    6.38202238e+00f, 6.38983870e+00f, 6.39765501e+00f, 6.40547132e+00f,
    6.41328764e+00f, 6.42110395e+00f, 6.42892027e+00f, 6.43673658e+00f,
    6.44455290e+00f, 6.45236921e+00f, 6.46018553e+00f, 6.46800184e+00f,
    6.47581816e+00f, 6.48363447e+00f, 6.49145079e+00f, 6.49926710e+00f,
    6.50708342e+00f, 6.51489973e+00f, 6.52271605e+00f, 6.53053236e+00f,
    6.53834867e+00f, 6.54616499e+00f, 6.55398130e+00f, 6.56179762e+00f,
    6.56961393e+00f, 6.57743025e+00f, 6.58524656e+00f, 6.59306288e+00f,
    6.60087919e+00f, 6.60869551e+00f, 6.61651182e+00f, 6.62432814e+00f,
    6.63214445e+00f, 6.63996077e+00f, 6.64777708e+00f, 6.65559340e+00f,
    6.66340971e+00f, 6.67122602e+00f, 6.67904234e+00f, 6.68685865e+00f,
    6.69467497e+00f, 6.70249128e+00f, 6.71030760e+00f, 6.71812391e+00f,
    6.72594023e+00f, 6.73375654e+00f, 6.74157286e+00f, 6.74938917e+00f,
    6.75720549e+00f, 6.76502180e+00f, 6.77283812e+00f, 6.78065443e+00f,
    6.78847075e+00f, 6.79628706e+00f, 6.80410337e+00f, 6.81191969e+00f,
    6.81973600e+00f, 6.82755232e+00f, 6.83536863e+00f, 6.84318495e+00f,
    6.85100126e+00f, 6.85881758e+00f, 6.86663389e+00f, 6.87445021e+00f,
    6.88226652e+00f, 6.89008284e+00f, 6.89789915e+00f, 6.90571547e+00f,
    6.91353178e+00f, 6.92134809e+00f, 6.92916441e+00f, 6.93698072e+00f,
    6.94479704e+00f, 6.95261335e+00f, 6.96042967e+00f, 6.96824598e+00f,
    6.97606230e+00f, 6.98387861e+00f, 6.99169493e+00f, 6.99951124e+00f,
    7.00732803e+00f, 7.01514435e+00f, 7.02296066e+00f, 7.03077698e+00f,
    7.03859329e+00f, 7.04640961e+00f, 7.05422592e+00f, 7.06204224e+00f,
    7.06985855e+00f, 7.07767487e+00f, 7.08549118e+00f, 7.09330750e+00f,
    7.10112381e+00f, 7.10894012e+00f, 7.11675644e+00f, 7.12457275e+00f,
    7.13238907e+00f, 7.14020538e+00f, 7.14802170e+00f, 7.15583801e+00f,
    7.16365433e+00f, 7.17147064e+00f, 7.17928696e+00f, 7.18710327e+00f,
    7.19491959e+00f, 7.20273590e+00f, 7.21055222e+00f, 7.21836853e+00f,
    7.22618484e+00f, 7.23400116e+00f, 7.24181747e+00f, 7.24963379e+00f,
    7.25745010e+00f, 7.26526642e+00f, 7.27308273e+00f, 7.28089905e+00f,
    7.28871536e+00f, 7.29653168e+00f, 7.30434799e+00f, 7.31216431e+00f,
    7.31998062e+00f, 7.32779694e+00f, 7.33561325e+00f, 7.34342957e+00f,
    7.35124588e+00f, 7.35906219e+00f, 7.36687851e+00f, 7.37469482e+00f,
    7.38251114e+00f, 7.39032745e+00f, 7.39814377e+00f, 7.40596008e+00f,
    7.41377640e+00f, 7.42159271e+00f, 7.42940903e+00f, 7.43722534e+00f,
    7.44504166e+00f, 7.45285797e+00f, 7.46067429e+00f, 7.46849060e+00f,
    7.47630692e+00f, 7.48412323e+00f, 7.49193954e+00f, 7.49975586e+00f,
    7.50757217e+00f, 7.51538849e+00f, 7.52320480e+00f, 7.53102112e+00f,
    7.53883743e+00f, 7.54665375e+00f, 7.55447006e+00f, 7.56228638e+00f,
    7.57010269e+00f, 7.57791901e+00f, 7.58573532e+00f, 7.59355164e+00f,
    7.60136795e+00f, 7.60918427e+00f, 7.61700058e+00f, 7.62481689e+00f,
    7.63263321e+00f, 7.64044952e+00f, 7.64826584e+00f, 7.65608215e+00f,
    7.66389847e+00f, 7.67171478e+00f, 7.67953110e+00f, 7.68734741e+00f,
    7.69516373e+00f, 7.70298004e+00f, 7.71079636e+00f, 7.71861267e+00f,
    7.72642899e+00f, 7.73424530e+00f, 7.74206161e+00f, 7.74987793e+00f,
    7.75769424e+00f, 7.76551056e+00f, 7.77332687e+00f, 7.78114319e+00f,
    7.78895950e+00f, 7.79677582e+00f, 7.80459213e+00f, 7.81240845e+00f,
    7.82022476e+00f, 7.82804108e+00f, 7.83585739e+00f, 7.84367371e+00f,
    7.85149002e+00f, 7.85930634e+00f, 7.86712265e+00f, 7.87493896e+00f,
    7.88275528e+00f, 7.89057159e+00f, 7.89838791e+00f, 7.90620422e+00f,
    7.91402054e+00f, 7.92183685e+00f, 7.92965317e+00f, 7.93746948e+00f,
    7.94528580e+00f, 7.95310211e+00f, 7.96091843e+00f, 7.96873474e+00f,
    7.97655106e+00f, 7.98436737e+00f, 7.99218369e+00f, 8.00000000e+00f
};

static const int LUT_SIGMOID_SIZE = 2048;
static const float LUT_SIGMOID[2048] = {
    3.35350138e-04f, 3.37980746e-04f, 3.40631901e-04f, 3.43303924e-04f,
    3.45996872e-04f, 3.48710950e-04f, 3.51446302e-04f, 3.54203134e-04f,
    3.56981531e-04f, 3.59781756e-04f, 3.62603896e-04f, 3.65448184e-04f,
    3.68314795e-04f, 3.71203816e-04f, 3.74115538e-04f, 3.77050135e-04f,
    3.80007696e-04f, 3.82988423e-04f, 3.85992578e-04f, 3.89020279e-04f,
    3.92071699e-04f, 3.95147013e-04f, 3.98246513e-04f, 4.01370256e-04f,
    4.04518505e-04f, 4.07691434e-04f, 4.10889275e-04f, 4.14112175e-04f,
    4.17360308e-04f, 4.20633936e-04f, 4.23933234e-04f, 4.27258434e-04f,
    4.30609623e-04f, 4.33987123e-04f, 4.37391078e-04f, 4.40821721e-04f,
    4.44279343e-04f, 4.47764061e-04f, 4.51275962e-04f, 4.54815541e-04f,
    4.58382798e-04f, 4.61978052e-04f, 4.65601479e-04f, 4.69253311e-04f,
    4.72933782e-04f, 4.76643094e-04f, 4.80381481e-04f, 4.84149205e-04f,
    4.87946381e-04f, 4.91773419e-04f, 4.95630433e-04f, 4.99517657e-04f,
    5.03435382e-04f, 5.07383782e-04f, 5.11363149e-04f, 5.15373773e-04f,
    5.19415771e-04f, 5.23489492e-04f, 5.27595053e-04f, 5.31732861e-04f,
    5.35903149e-04f, 5.40106033e-04f, 5.44341921e-04f, 5.48610988e-04f,
    5.52913523e-04f, 5.57249819e-04f, 5.61620109e-04f, 5.66024508e-04f,
    5.70463540e-04f, 5.74937440e-04f, 5.79446321e-04f, 5.83990477e-04f,
    5.88570372e-04f, 5.93186182e-04f, 5.97837963e-04f, 6.02526357e-04f,
    6.07251481e-04f, 6.12013682e-04f, 6.16813195e-04f, 6.21650252e-04f,
    6.26525201e-04f, 6.31438452e-04f, 6.36390119e-04f, 6.41380670e-04f,
    6.46410277e-04f, 6.51479291e-04f, 6.56588061e-04f, 6.61736820e-04f,
    6.66926033e-04f, 6.72155817e-04f, 6.77426637e-04f, 6.82738668e-04f,
    6.88092434e-04f, 6.93488109e-04f, 6.98926102e-04f, 7.04406644e-04f,
    7.09930086e-04f, 7.15496950e-04f, 7.21107353e-04f, 7.26761704e-04f,
    7.32460408e-04f, 7.38203700e-04f, 7.43992045e-04f, 7.49825733e-04f,
    7.55705114e-04f, 7.61630537e-04f, 7.67602527e-04f, 7.73621199e-04f,
    7.79687020e-04f, 7.85800337e-04f, 7.91961618e-04f, 7.98171037e-04f,
    8.04429234e-04f, 8.10736557e-04f, 8.17093067e-04f, 8.23499402e-04f,
    8.29956087e-04f, 8.36463179e-04f, 8.43021437e-04f, 8.49630800e-04f,
    8.56292201e-04f, 8.63005640e-04f, 8.69771757e-04f, 8.76590726e-04f,
    8.83463304e-04f, 8.90389609e-04f, 8.97370162e-04f, 9.04405373e-04f,
    9.11496172e-04f, 9.18642094e-04f, 9.25843895e-04f, 9.33102099e-04f,
    9.40417347e-04f, 9.47789638e-04f, 9.55219846e-04f, 9.62708204e-04f,
    9.70255234e-04f, 9.77861346e-04f, 9.85526945e-04f, 9.93252615e-04f,
    1.00103882e-03f, 1.00888603e-03f, 1.01679459e-03f, 1.02476508e-03f,
    1.03279820e-03f, 1.04089396e-03f, 1.04905327e-03f, 1.05727650e-03f,
    1.06556388e-03f, 1.07391633e-03f, 1.08233432e-03f, 1.09081797e-03f,
    1.09936809e-03f, 1.10798527e-03f, 1.11666997e-03f, 1.12542242e-03f,
    1.13424356e-03f, 1.14313373e-03f, 1.15209364e-03f, 1.16112351e-03f,
    1.17022416e-03f, 1.17939583e-03f, 1.18863955e-03f, 1.19795557e-03f,
    1.20734447e-03f, 1.21680682e-03f, 1.22634356e-03f, 1.23595458e-03f,
    1.24564103e-03f, 1.25540316e-03f, 1.26524165e-03f, 1.27515744e-03f,
    1.28515053e-03f, 1.29522209e-03f, 1.30537234e-03f, 1.31560198e-03f,
    1.32591173e-03f, 1.33630214e-03f, 1.34677405e-03f, 1.35732768e-03f,
    1.36796408e-03f, 1.37868361e-03f, 1.38948695e-03f, 1.40037492e-03f,
    1.41134812e-03f, 1.42240711e-03f, 1.43355259e-03f, 1.44478527e-03f,
    1.45610585e-03f, 1.46751525e-03f, 1.47901371e-03f, 1.49060215e-03f,
    1.50228129e-03f, 1.51405169e-03f, 1.52591418e-03f, 1.53786957e-03f,
    1.54991855e-03f, 1.56206160e-03f, 1.57429976e-03f, 1.58663339e-03f,
    1.59906386e-03f, 1.61159132e-03f, 1.62421691e-03f, 1.63694110e-03f,
    1.64976495e-03f, 1.66268891e-03f, 1.67571427e-03f, 1.68884126e-03f,
    1.70207093e-03f, 1.71540398e-03f, 1.72884145e-03f, 1.74238393e-03f,
    1.75603235e-03f, 1.76978740e-03f, 1.78365014e-03f, 1.79762125e-03f,
    1.81170134e-03f, 1.82589167e-03f, 1.84019294e-03f, 1.85460609e-03f,
    1.86913204e-03f, 1.88377115e-03f, 1.89852482e-03f, 1.91339420e-03f,
    1.92837953e-03f, 1.94348197e-03f, 1.95870246e-03f, 1.97404181e-03f,
    1.98950130e-03f, 2.00508162e-03f, 2.02078349e-03f, 2.03660806e-03f,
    2.05255649e-03f, 2.06862949e-03f, 2.08482798e-03f, 2.10115337e-03f,
    2.11760588e-03f, 2.13418738e-03f, 2.15089810e-03f, 2.16773944e-03f,
    2.18471256e-03f, 2.20181793e-03f, 2.21905718e-03f, 2.23643123e-03f,
    2.25394079e-03f, 2.27158703e-03f, 2.28937133e-03f, 2.30729440e-03f,
    2.32535740e-03f, 2.34356173e-03f, 2.36190786e-03f, 2.38039764e-03f,
    2.39903177e-03f, 2.41781119e-03f, 2.43673730e-03f, 2.45581148e-03f,
    2.47503421e-03f, 2.49440712e-03f, 2.51393160e-03f, 2.53360835e-03f,
    2.55343853e-03f, 2.57342355e-03f, 2.59356457e-03f, 2.61386321e-03f,
    2.63431994e-03f, 2.65493640e-03f, 2.67571374e-03f, 2.69665336e-03f,
    2.71775620e-03f, 2.73902412e-03f, 2.76045734e-03f, 2.78205844e-03f,
    2.80382787e-03f, 2.82576680e-03f, 2.84787756e-03f, 2.87016062e-03f,
    2.89261760e-03f, 2.91524921e-03f, 2.93805799e-03f, 2.96104420e-03f,
    2.98421038e-03f, 3.00755678e-03f, 3.03108571e-03f, 3.05479742e-03f,
    3.07869492e-03f, 3.10277799e-03f, 3.12704896e-03f, 3.15150945e-03f,
    3.17616086e-03f, 3.20100412e-03f, 3.22604110e-03f, 3.25127365e-03f,
    3.27670225e-03f, 3.30232969e-03f, 3.32815642e-03f, 3.35418480e-03f,
    3.38041619e-03f, 3.40685155e-03f, 3.43349320e-03f, 3.46034206e-03f,
    3.48740094e-03f, 3.51467007e-03f, 3.54215130e-03f, 3.56984767e-03f,
    3.59775894e-03f, 3.62588814e-03f, 3.65423621e-03f, 3.68280546e-03f,
    3.71159683e-03f, 3.74061288e-03f, 3.76985432e-03f, 3.79932369e-03f,
    3.82902240e-03f, 3.85895278e-03f, 3.88911599e-03f, 3.91951390e-03f,
    3.95014882e-03f, 3.98102216e-03f, 4.01213579e-03f, 4.04349109e-03f,
    4.07509087e-03f, 4.10693698e-03f, 4.13902989e-03f, 4.17137332e-03f,
    4.20396822e-03f, 4.23681689e-03f, 4.26992076e-03f, 4.30328259e-03f,
    4.33690380e-03f, 4.37078625e-03f, 4.40493226e-03f, 4.43934463e-03f,
    4.47402382e-03f, 4.50897310e-03f, 4.54419339e-03f, 4.57968842e-03f,
    4.61545913e-03f, 4.65150783e-03f, 4.68783686e-03f, 4.72444855e-03f,
    4.76134429e-03f, 4.79852734e-03f, 4.83599864e-03f, 4.87376191e-03f,
    4.91181761e-03f, 4.95016994e-03f, 4.98881983e-03f, 5.02777006e-03f,
    5.06702252e-03f, 5.10658044e-03f, 5.14644524e-03f, 5.18661970e-03f,
    5.22710569e-03f, 5.26790647e-03f, 5.30902389e-03f, 5.35046123e-03f,
    5.39221941e-03f, 5.43430122e-03f, 5.47671085e-03f, 5.51944831e-03f,
    5.56251872e-03f, 5.60592255e-03f, 5.64966397e-03f, 5.69374394e-03f,
    5.73816570e-03f, 5.78293251e-03f, 5.82804671e-03f, 5.87351015e-03f,
    5.91932610e-03f, 5.96549734e-03f, 6.01202762e-03f, 6.05891738e-03f,
    6.10617083e-03f, 6.15379121e-03f, 6.20178040e-03f, 6.25014119e-03f,
    6.29887637e-03f, 6.34798966e-03f, 6.39748340e-03f, 6.44736039e-03f,
    6.49762293e-03f, 6.54827617e-03f, 6.59932150e-03f, 6.65076077e-03f,
    6.70260284e-03f, 6.75484212e-03f, 6.80748653e-03f, 6.86053839e-03f,
    6.91400003e-03f, 6.96787564e-03f, 7.02216802e-03f, 7.07688089e-03f,
    7.13201752e-03f, 7.18757883e-03f, 7.24357134e-03f, 7.29999598e-03f,
    7.35685695e-03f, 7.41415750e-03f, 7.47190183e-03f, 7.53009180e-03f,
    7.58873206e-03f, 7.64782494e-03f, 7.70737370e-03f, 7.76738441e-03f,
    7.82785658e-03f, 7.88879674e-03f, 7.95020815e-03f, 8.01209267e-03f,
    8.07445496e-03f, 8.13729968e-03f, 8.20062868e-03f, 8.26444663e-03f,
    8.32875725e-03f, 8.39356333e-03f, 8.45887139e-03f, 8.52468144e-03f,
    8.59099906e-03f, 8.65782890e-03f, 8.72517377e-03f, 8.79303738e-03f,
    8.86142440e-03f, 8.93033855e-03f, 8.99978355e-03f, 9.06976406e-03f,
    9.14028287e-03f, 9.21134558e-03f, 9.28295590e-03f, 9.35511664e-03f,
    9.42783430e-03f, 9.50111076e-03f, 9.57495254e-03f, 9.64936055e-03f,
    9.72434133e-03f, 9.79990140e-03f, 9.87604167e-03f, 9.95276589e-03f,
    1.00300824e-02f, 1.01079913e-02f, 1.01865008e-02f, 1.02656139e-02f,
    1.03453323e-02f, 1.04256654e-02f, 1.05066160e-02f, 1.05881887e-02f,
    1.06703872e-02f, 1.07532153e-02f, 1.08366814e-02f, 1.09207882e-02f,
    1.10055385e-02f, 1.10909408e-02f, 1.11769987e-02f, 1.12637160e-02f,
    1.13510974e-02f, 1.14391502e-02f, 1.15278782e-02f, 1.16172861e-02f,
    1.17073795e-02f, 1.17981611e-02f, 1.18896402e-02f, 1.19818198e-02f,
    1.20747052e-02f, 1.21683022e-02f, 1.22626144e-02f, 1.23576503e-02f,
    1.24534136e-02f, 1.25499060e-02f, 1.26471398e-02f, 1.27451159e-02f,
    1.28438426e-02f, 1.29433218e-02f, 1.30435629e-02f, 1.31445704e-02f,
    1.32463472e-02f, 1.33489044e-02f, 1.34522431e-02f, 1.35563714e-02f,
    1.36612942e-02f, 1.37670171e-02f, 1.38735482e-02f, 1.39808906e-02f,
    1.40890516e-02f, 1.41980397e-02f, 1.43078547e-02f, 1.44185089e-02f,
    1.45300059e-02f, 1.46423541e-02f, 1.47555564e-02f, 1.48696201e-02f,
    1.49845537e-02f, 1.51003599e-02f, 1.52170500e-02f, 1.53346248e-02f,
    1.54530955e-02f, 1.55724641e-02f, 1.56927444e-02f, 1.58139374e-02f,
    1.59360524e-02f, 1.60590932e-02f, 1.61830671e-02f, 1.63079835e-02f,
    1.64338499e-02f, 1.65606700e-02f, 1.66884512e-02f, 1.68172028e-02f,
    1.69469286e-02f, 1.70776397e-02f, 1.72093399e-02f, 1.73420422e-02f,
    1.74757428e-02f, 1.76104587e-02f, 1.77461952e-02f, 1.78829599e-02f,
    1.80207584e-02f, 1.81595981e-02f, 1.82994865e-02f, 1.84404328e-02f,
    1.85824465e-02f, 1.87255312e-02f, 1.88696962e-02f, 1.90149490e-02f,
    1.91613007e-02f, 1.93087533e-02f, 1.94573198e-02f, 1.96070094e-02f,
    1.97578240e-02f, 1.99097749e-02f, 2.00628713e-02f, 2.02171225e-02f,
    2.03725323e-02f, 2.05291118e-02f, 2.06868723e-02f, 2.08458155e-02f,
    2.10059527e-02f, 2.11672988e-02f, 2.13298555e-02f, 2.14936305e-02f,
    2.16586366e-02f, 2.18248796e-02f, 2.19923723e-02f, 2.21611224e-02f,
    2.23311335e-02f, 2.25024242e-02f, 2.26749945e-02f, 2.28488594e-02f,
    2.30240244e-02f, 2.32005026e-02f, 2.33782995e-02f, 2.35574245e-02f,
    2.37378906e-02f, 2.39197034e-02f, 2.41028778e-02f, 2.42874175e-02f,
    2.44733337e-02f, 2.46606413e-02f, 2.48493440e-02f, 2.50394512e-02f,
    2.52309740e-02f, 2.54239291e-02f, 2.56183147e-02f, 2.58141533e-02f,
    2.60114484e-02f, 2.62102094e-02f, 2.64104456e-02f, 2.66121719e-02f,
    2.68153977e-02f, 2.70201303e-02f, 2.72263791e-02f, 2.74341647e-02f,
    2.76434887e-02f, 2.78543644e-02f, 2.80668009e-02f, 2.82808114e-02f,
    2.84964032e-02f, 2.87135933e-02f, 2.89323889e-02f, 2.91528013e-02f,
    2.93748453e-02f, 2.95985304e-02f, 2.98238602e-02f, 3.00508551e-02f,
    3.02795228e-02f, 3.05098724e-02f, 3.07419226e-02f, 3.09756808e-02f,
    3.12111564e-02f, 3.14483680e-02f, 3.16873230e-02f, 3.19280326e-02f,
    3.21705081e-02f, 3.24147642e-02f, 3.26608159e-02f, 3.29086706e-02f,
    3.31583396e-02f, 3.34098376e-02f, 3.36631797e-02f, 3.39183696e-02f,
    3.41754295e-02f, 3.44343670e-02f, 3.46952006e-02f, 3.49579304e-02f,
    3.52225788e-02f, 3.54891643e-02f, 3.57576869e-02f, 3.60281654e-02f,
    3.63006145e-02f, 3.65750454e-02f, 3.68514694e-02f, 3.71299051e-02f,
    3.74103598e-02f, 3.76928523e-02f, 3.79773937e-02f, 3.82639989e-02f,
    3.85526791e-02f, 3.88434492e-02f, 3.91363241e-02f, 3.94313112e-02f,
    3.97284366e-02f, 4.00277041e-02f, 4.03291322e-02f, 4.06327322e-02f,
    4.09385227e-02f, 4.12465148e-02f, 4.15567271e-02f, 4.18691672e-02f,
    4.21838500e-02f, 4.25007939e-02f, 4.28200103e-02f, 4.31415252e-02f,
    4.34653424e-02f, 4.37914692e-02f, 4.41199392e-02f, 4.44507562e-02f,
    4.47839387e-02f, 4.51194979e-02f, 4.54574563e-02f, 4.57978286e-02f,
    4.61406149e-02f, 4.64858487e-02f, 4.68335375e-02f, 4.71836962e-02f,
    4.75363433e-02f, 4.78914939e-02f, 4.82491627e-02f, 4.86093685e-02f,
    4.89721261e-02f, 4.93374504e-02f, 4.97053489e-02f, 5.00758514e-02f,
    5.04489690e-02f, 5.08247241e-02f, 5.12031205e-02f, 5.15841804e-02f,
    5.19679226e-02f, 5.23543619e-02f, 5.27435206e-02f, 5.31354062e-02f,
    5.35300374e-02f, 5.39274253e-02f, 5.43276034e-02f, 5.47305755e-02f,
    5.51363640e-02f, 5.55449836e-02f, 5.59564568e-02f, 5.63707910e-02f,
    5.67880124e-02f, 5.72081283e-02f, 5.76311648e-02f, 5.80571368e-02f,
    5.84860668e-02f, 5.89179657e-02f, 5.93528487e-02f, 5.97907379e-02f,
    6.02316558e-02f, 6.06756173e-02f, 6.11226261e-02f, 6.15727268e-02f,
    6.20259084e-02f, 6.24822117e-02f, 6.29416481e-02f, 6.34042323e-02f,
    6.38699904e-02f, 6.43389225e-02f, 6.48110658e-02f, 6.52864352e-02f,
    6.57650381e-02f, 6.62469044e-02f, 6.67320564e-02f, 6.72204942e-02f,
    6.77122623e-02f, 6.82073459e-02f, 6.87057897e-02f, 6.92076162e-02f,
    6.97128251e-02f, 7.02214390e-02f, 7.07334951e-02f, 7.12489858e-02f,
    7.17679486e-02f, 7.22903982e-02f, 7.28163496e-02f, 7.33458251e-02f,
    7.38788396e-02f, 7.44154230e-02f, 7.49555975e-02f, 7.54993632e-02f,
    7.60467649e-02f, 7.65977874e-02f, 7.71524757e-02f, 7.77108446e-02f,
    7.82729015e-02f, 7.88386837e-02f, 7.94081911e-02f, 7.99814835e-02f,
    8.05585235e-02f, 8.11393782e-02f, 8.17240253e-02f, 8.23125243e-02f,
    8.29048827e-02f, 8.35011080e-02f, 8.41012374e-02f, 8.47052783e-02f,
    8.53132382e-02f, 8.59251767e-02f, 8.65410641e-02f, 8.71609673e-02f,
    8.77848640e-02f, 8.84128064e-02f, 8.90448019e-02f, 8.96808729e-02f,
    9.03210193e-02f, 9.09653008e-02f, 9.16137025e-02f, 9.22662690e-02f,
    9.29230005e-02f, 9.35839191e-02f, 9.42490473e-02f, 9.49184224e-02f,
    9.55920443e-02f, 9.62699354e-02f, 9.69521180e-02f, 9.76386219e-02f,
    9.83294398e-02f, 9.90246236e-02f, 9.97241810e-02f, 1.00428119e-01f,
    1.01136468e-01f, 1.01849258e-01f, 1.02566481e-01f, 1.03288189e-01f,
    1.04014389e-01f, 1.04745083e-01f, 1.05480313e-01f, 1.06220081e-01f,
    1.06964447e-01f, 1.07713386e-01f, 1.08466923e-01f, 1.09225094e-01f,
    1.09987907e-01f, 1.10755377e-01f, 1.11527547e-01f, 1.12304419e-01f,
    1.13086008e-01f, 1.13872327e-01f, 1.14663422e-01f, 1.15459301e-01f,
    1.16259970e-01f, 1.17065445e-01f, 1.17875777e-01f, 1.18690960e-01f,
    1.19511016e-01f, 1.20335959e-01f, 1.21165819e-01f, 1.22000612e-01f,
    1.22840330e-01f, 1.23685032e-01f, 1.24534704e-01f, 1.25389397e-01f,
    1.26249105e-01f, 1.27113849e-01f, 1.27983645e-01f, 1.28858522e-01f,
    1.29738480e-01f, 1.30623549e-01f, 1.31513745e-01f, 1.32409081e-01f,
    1.33309573e-01f, 1.34215251e-01f, 1.35126114e-01f, 1.36042193e-01f,
    1.36963502e-01f, 1.37890056e-01f, 1.38821855e-01f, 1.39758930e-01f,
    1.40701309e-01f, 1.41648993e-01f, 1.42602012e-01f, 1.43560335e-01f,
    1.44524038e-01f, 1.45493120e-01f, 1.46467581e-01f, 1.47447437e-01f,
    1.48432747e-01f, 1.49423435e-01f, 1.50419578e-01f, 1.51421174e-01f,
    1.52428254e-01f, 1.53440818e-01f, 1.54458895e-01f, 1.55482471e-01f,
    1.56511575e-01f, 1.57546222e-01f, 1.58586442e-01f, 1.59632191e-01f,
    1.60683542e-01f, 1.61740497e-01f, 1.62803039e-01f, 1.63871199e-01f,
    1.64944977e-01f, 1.66024417e-01f, 1.67109489e-01f, 1.68200210e-01f,
    1.69296622e-01f, 1.70398727e-01f, 1.71506509e-01f, 1.72619998e-01f,
    1.73739195e-01f, 1.74864128e-01f, 1.75994784e-01f, 1.77131191e-01f,
    1.78273335e-01f, 1.79421231e-01f, 1.80574924e-01f, 1.81734383e-01f,
    1.82899594e-01f, 1.84070632e-01f, 1.85247436e-01f, 1.86430067e-01f,
    1.87618509e-01f, 1.88812762e-01f, 1.90012842e-01f, 1.91218764e-01f,
    1.92430496e-01f, 1.93648085e-01f, 1.94871500e-01f, 1.96100771e-01f,
    1.97335899e-01f, 1.98576897e-01f, 1.99823767e-01f, 2.01076478e-01f,
    2.02335045e-01f, 2.03599513e-01f, 2.04869866e-01f, 2.06146032e-01f,
    2.07428113e-01f, 2.08716080e-01f, 2.10009903e-01f, 2.11309612e-01f,
    2.12615192e-01f, 2.13926688e-01f, 2.15244025e-01f, 2.16567263e-01f,
    2.17896342e-01f, 2.19231337e-01f, 2.20572159e-01f, 2.21918881e-01f,
    2.23271489e-01f, 2.24629954e-01f, 2.25994244e-01f, 2.27364406e-01f,
    2.28740439e-01f, 2.30122253e-01f, 2.31509984e-01f, 2.32903540e-01f,
    2.34302893e-01f, 2.35708103e-01f, 2.37119123e-01f, 2.38535926e-01f,
    2.39958569e-01f, 2.41386980e-01f, 2.42821202e-01f, 2.44261205e-01f,
    2.45706946e-01f, 2.47158468e-01f, 2.48615727e-01f, 2.50078738e-01f,
    2.51547456e-01f, 2.53021926e-01f, 2.54502058e-01f, 2.55987883e-01f,
    2.57479399e-01f, 2.58976609e-01f, 2.60479420e-01f, 2.61987895e-01f,
    2.63502002e-01f, 2.65021712e-01f, 2.66546994e-01f, 2.68077880e-01f,
    2.69614309e-01f, 2.71156251e-01f, 2.72703767e-01f, 2.74256796e-01f,
    2.75815278e-01f, 2.77379274e-01f, 2.78948665e-01f, 2.80523539e-01f,
    2.82103807e-01f, 2.83689469e-01f, 2.85280496e-01f, 2.86876887e-01f,
    2.88478613e-01f, 2.90085614e-01f, 2.91697890e-01f, 2.93315470e-01f,
    2.94938266e-01f, 2.96566248e-01f, 2.98199475e-01f, 2.99837798e-01f,
    3.01481307e-01f, 3.03129882e-01f, 3.04783553e-01f, 3.06442291e-01f,
    3.08106035e-01f, 3.09774786e-01f, 3.11448485e-01f, 3.13127160e-01f,
    3.14810753e-01f, 3.16499203e-01f, 3.18192482e-01f, 3.19890618e-01f,
    3.21593523e-01f, 3.23301196e-01f, 3.25013578e-01f, 3.26730669e-01f,
    3.28452379e-01f, 3.30178767e-01f, 3.31909716e-01f, 3.33645225e-01f,
    3.35385203e-01f, 3.37129742e-01f, 3.38878721e-01f, 3.40632051e-01f,
    3.42389792e-01f, 3.44151855e-01f, 3.45918268e-01f, 3.47688913e-01f,
    3.49463761e-01f, 3.51242781e-01f, 3.53026003e-01f, 3.54813248e-01f,
    3.56604576e-01f, 3.58399957e-01f, 3.60199302e-01f, 3.62002552e-01f,
    3.63809705e-01f, 3.65620792e-01f, 3.67435604e-01f, 3.69254231e-01f,
    3.71076494e-01f, 3.72902513e-01f, 3.74732137e-01f, 3.76565337e-01f,
    3.78402084e-01f, 3.80242318e-01f, 3.82086009e-01f, 3.83933097e-01f,
    3.85783583e-01f, 3.87637317e-01f, 3.89494359e-01f, 3.91354591e-01f,
    3.93217951e-01f, 3.95084500e-01f, 3.96954030e-01f, 3.98826629e-01f,
    4.00702149e-01f, 4.02580619e-01f, 4.04461950e-01f, 4.06346053e-01f,
    4.08232987e-01f, 4.10122573e-01f, 4.12014842e-01f, 4.13909703e-01f,
    4.15807098e-01f, 4.17707026e-01f, 4.19609368e-01f, 4.21514124e-01f,
    4.23421234e-01f, 4.25330579e-01f, 4.27242190e-01f, 4.29156005e-01f,
    4.31071848e-01f, 4.32989866e-01f, 4.34909791e-01f, 4.36831772e-01f,
    4.38755572e-01f, 4.40681279e-01f, 4.42608744e-01f, 4.44537908e-01f,
    4.46468771e-01f, 4.48401242e-01f, 4.50335294e-01f, 4.52270836e-01f,
    4.54207808e-01f, 4.56146151e-01f, 4.58085895e-01f, 4.60026860e-01f,
    4.61969078e-01f, 4.63912398e-01f, 4.65856850e-01f, 4.67802286e-01f,
    4.69748765e-01f, 4.71696109e-01f, 4.73644406e-01f, 4.75593418e-01f,
    4.77543205e-01f, 4.79493707e-01f, 4.81444776e-01f, 4.83396411e-01f,
    4.85348612e-01f, 4.87301230e-01f, 4.89254206e-01f, 4.91207510e-01f,
    4.93161142e-01f, 4.95114952e-01f, 4.97068882e-01f, 4.99022961e-01f,
    5.00977039e-01f, 5.02931118e-01f, 5.04885077e-01f, 5.06838858e-01f,
    5.08792400e-01f, 5.10745764e-01f, 5.12698770e-01f, 5.14651418e-01f,
    5.16603589e-01f, 5.18555224e-01f, 5.20506322e-01f, 5.22456765e-01f,
    5.24406552e-01f, 5.26355624e-01f, 5.28303862e-01f, 5.30251265e-01f,
    5.32197714e-01f, 5.34143150e-01f, 5.36087573e-01f, 5.38030982e-01f,
    5.39973140e-01f, 5.41914105e-01f, 5.43853819e-01f, 5.45792162e-01f,
    5.47729194e-01f, 5.49664736e-01f, 5.51598787e-01f, 5.53531229e-01f,
    5.55462122e-01f, 5.57391346e-01f, 5.59318781e-01f, 5.61244428e-01f,
    5.63168228e-01f, 5.65090179e-01f, 5.67010164e-01f, 5.68928182e-01f,
    5.70844054e-01f, 5.72757781e-01f, 5.74669421e-01f, 5.76578796e-01f,
    5.78485847e-01f, 5.80390632e-01f, 5.82292974e-01f, 5.84192872e-01f,
    5.86090326e-01f, 5.87985158e-01f, 5.89877427e-01f, 5.91767073e-01f,
    5.93653917e-01f, 5.95538080e-01f, 5.97419381e-01f, 5.99297822e-01f,
    6.01173401e-01f, 6.03045940e-01f, 6.04915500e-01f, 6.06782019e-01f,
    6.08645439e-01f, 6.10505700e-01f, 6.12362683e-01f, 6.14216447e-01f,
    6.16066873e-01f, 6.17913961e-01f, 6.19757652e-01f, 6.21597886e-01f,
    6.23434663e-01f, 6.25267863e-01f, 6.27097487e-01f, 6.28923476e-01f,
    6.30745828e-01f, 6.32564425e-01f, 6.34379208e-01f, 6.36190236e-01f,
    6.37997448e-01f, 6.39800668e-01f, 6.41600072e-01f, 6.43395364e-01f,
    6.45186722e-01f, 6.46974027e-01f, 6.48757219e-01f, 6.50536239e-01f,
    6.52311087e-01f, 6.54081702e-01f, 6.55848086e-01f, 6.57610238e-01f,
    6.59367919e-01f, 6.61121249e-01f, 6.62870288e-01f, 6.64614737e-01f,
    6.66354775e-01f, 6.68090284e-01f, 6.69821203e-01f, 6.71547592e-01f,
    6.73269331e-01f, 6.74986362e-01f, 6.76698804e-01f, 6.78406477e-01f,
    6.80109382e-01f, 6.81807518e-01f, 6.83500767e-01f, 6.85189247e-01f,
    6.86872840e-01f, 6.88551545e-01f, 6.90225244e-01f, 6.91893935e-01f,
    6.93557680e-01f, 6.95216417e-01f, 6.96870148e-01f, 6.98518693e-01f,
    7.00162172e-01f, 7.01800585e-01f, 7.03433752e-01f, 7.05061734e-01f,
    7.06684530e-01f, 7.08302081e-01f, 7.09914386e-01f, 7.11521387e-01f,
    7.13123083e-01f, 7.14719534e-01f, 7.16310501e-01f, 7.17896223e-01f,
    7.19476461e-01f, 7.21051335e-01f, 7.22620726e-01f, 7.24184692e-01f,
    7.25743175e-01f, 7.27296233e-01f, 7.28843749e-01f, 7.30385661e-01f,
    7.31922150e-01f, 7.33453035e-01f, 7.34978318e-01f, 7.36498058e-01f,
    7.38012135e-01f, 7.39520550e-01f, 7.41023421e-01f, 7.42520630e-01f,
    7.44012117e-01f, 7.45497942e-01f, 7.46978104e-01f, 7.48452544e-01f,
    7.49921262e-01f, 7.51384258e-01f, 7.52841592e-01f, 7.54293084e-01f,
    7.55738854e-01f, 7.57178783e-01f, 7.58612990e-01f, 7.60041475e-01f,
    7.61464059e-01f, 7.62880921e-01f, 7.64291883e-01f, 7.65697062e-01f,
    7.67096460e-01f, 7.68490016e-01f, 7.69877732e-01f, 7.71259606e-01f,
    7.72635579e-01f, 7.74005771e-01f, 7.75370061e-01f, 7.76728511e-01f,
    7.78081119e-01f, 7.79427886e-01f, 7.80768633e-01f, 7.82103717e-01f,
    7.83432782e-01f, 7.84755945e-01f, 7.86073327e-01f, 7.87384808e-01f,
    7.88690388e-01f, 7.89990127e-01f, 7.91283906e-01f, 7.92571902e-01f,
    7.93853939e-01f, 7.95130134e-01f, 7.96400487e-01f, 7.97664940e-01f,
    7.98923552e-01f, 8.00176263e-01f, 8.01423132e-01f, 8.02664101e-01f,
    8.03899229e-01f, 8.05128515e-01f, 8.06351900e-01f, 8.07569504e-01f,
    8.08781266e-01f, 8.09987187e-01f, 8.11187208e-01f, 8.12381446e-01f,
    8.13569903e-01f, 8.14752519e-01f, 8.15929353e-01f, 8.17100406e-01f,
    8.18265617e-01f, 8.19425106e-01f, 8.20578814e-01f, 8.21726620e-01f,
    8.22868824e-01f, 8.24005246e-01f, 8.25135887e-01f, 8.26260805e-01f,
    8.27380002e-01f, 8.28493536e-01f, 8.29601288e-01f, 8.30703378e-01f,
    8.31799805e-01f, 8.32890570e-01f, 8.33975613e-01f, 8.35055053e-01f,
    8.36128831e-01f, 8.37196946e-01f, 8.38259518e-01f, 8.39316487e-01f,
    8.40367854e-01f, 8.41413558e-01f, 8.42453778e-01f, 8.43488455e-01f,
    8.44517529e-01f, 8.45541060e-01f, 8.46559167e-01f, 8.47571731e-01f,
    8.48578811e-01f, 8.49580467e-01f, 8.50576580e-01f, 8.51567268e-01f,
    8.52552533e-01f, 8.53532434e-01f, 8.54506910e-01f, 8.55475962e-01f,
    8.56439650e-01f, 8.57397974e-01f, 8.58351052e-01f, 8.59298706e-01f,
    8.60241055e-01f, 8.61178160e-01f, 8.62109900e-01f, 8.63036513e-01f,
    8.63957822e-01f, 8.64873886e-01f, 8.65784824e-01f, 8.66690397e-01f,
    8.67590904e-01f, 8.68486285e-01f, 8.69376421e-01f, 8.70261550e-01f,
    8.71141493e-01f, 8.72016370e-01f, 8.72886181e-01f, 8.73750925e-01f,
    8.74610603e-01f, 8.75465333e-01f, 8.76314938e-01f, 8.77159715e-01f,
    8.77999365e-01f, 8.78834248e-01f, 8.79664004e-01f, 8.80488992e-01f,
    8.81309032e-01f, 8.82124245e-01f, 8.82934511e-01f, 8.83740008e-01f,
    8.84540677e-01f, 8.85336518e-01f, 8.86127651e-01f, 8.86913955e-01f,
    8.87695611e-01f, 8.88472497e-01f, 8.89244616e-01f, 8.90012085e-01f,
    8.90774906e-01f, 8.91533136e-01f, 8.92286658e-01f, 8.93035531e-01f,
    8.93779933e-01f, 8.94519687e-01f, 8.95254850e-01f, 8.95985603e-01f,
    8.96711826e-01f, 8.97433519e-01f, 8.98150802e-01f, 8.98863554e-01f,
    8.99571896e-01f, 9.00275826e-01f, 9.00975406e-01f, 9.01670516e-01f,
    9.02361393e-01f, 9.03047919e-01f, 9.03730094e-01f, 9.04407918e-01f,
    9.05081570e-01f, 9.05750990e-01f, 9.06416059e-01f, 9.07076955e-01f,
    9.07733738e-01f, 9.08386350e-01f, 9.09034729e-01f, 9.09678936e-01f,
    9.10319149e-01f, 9.10955131e-01f, 9.11587238e-01f, 9.12215114e-01f,
    9.12838995e-01f, 9.13459003e-01f, 9.14074779e-01f, 9.14686799e-01f,
    9.15294707e-01f, 9.15898800e-01f, 9.16498899e-01f, 9.17095184e-01f,
    9.17687476e-01f, 9.18275952e-01f, 9.18860674e-01f, 9.19441462e-01f,
    9.20018554e-01f, 9.20591772e-01f, 9.21161294e-01f, 9.21727121e-01f,
    9.22289133e-01f, 9.22847509e-01f, 9.23402250e-01f, 9.23953176e-01f,
    9.24500644e-01f, 9.25044417e-01f, 9.25584555e-01f, 9.26121116e-01f,
    9.26654160e-01f, 9.27183688e-01f, 9.27709579e-01f, 9.28232074e-01f,
    9.28750992e-01f, 9.29266512e-01f, 9.29778516e-01f, 9.30287182e-01f,
    9.30792391e-01f, 9.31294143e-01f, 9.31792676e-01f, 9.32287812e-01f,
    9.32779491e-01f, 9.33267951e-01f, 9.33753073e-01f, 9.34234977e-01f,
    9.34713542e-01f, 9.35188890e-01f, 9.35661137e-01f, 9.36130047e-01f,
    9.36595798e-01f, 9.37058330e-01f, 9.37517762e-01f, 9.37974095e-01f,
    9.38427269e-01f, 9.38877344e-01f, 9.39324379e-01f, 9.39768314e-01f,
    9.40209270e-01f, 9.40647185e-01f, 9.41082060e-01f, 9.41513956e-01f,
